digraph Tree {
node [shape=box] ;
0 [label="X[16] <= 0.4065\ngini = 0.418\nsamples = 19840\nvalue = [13937, 5903]"] ;
1 [label="X[9] <= 0.6631\ngini = 0.4601\nsamples = 13656\nvalue = [8758, 4898]"] ;
0 -> 1 [labeldistance=2.5, labelangle=45, headlabel="True"] ;
2 [label="X[10] <= 0.9627\ngini = 0.4972\nsamples = 9218\nvalue = [4953, 4265]"] ;
1 -> 2 ;
3 [label="X[11] <= 1.5891\ngini = 0.4601\nsamples = 6178\nvalue = [2216, 3962]"] ;
2 -> 3 ;
4 [label="X[13] <= 2.3451\ngini = 0.33\nsamples = 4654\nvalue = [970, 3684]"] ;
3 -> 4 ;
5 [label="X[12] <= 4.4157\ngini = 0.1221\nsamples = 3859\nvalue = [252, 3607]"] ;
4 -> 5 ;
6 [label="X[7] <= 17.0592\ngini = 0.0165\nsamples = 3614\nvalue = [30, 3584]"] ;
5 -> 6 ;
7 [label="X[14] <= 24.8847\ngini = 0.0078\nsamples = 3597\nvalue = [14, 3583]"] ;
6 -> 7 ;
8 [label="X[8] <= 35.203\ngini = 0.0033\nsamples = 3589\nvalue = [6, 3583]"] ;
7 -> 8 ;
9 [label="X[15] <= 70.4219\ngini = 0.0017\nsamples = 3585\nvalue = [3, 3582]"] ;
8 -> 9 ;
10 [label="X[99] <= 8.2547\ngini = 0.0011\nsamples = 3584\nvalue = [2, 3582]"] ;
9 -> 10 ;
11 [label="X[154] <= 1.741\ngini = 0.0006\nsamples = 3571\nvalue = [1, 3570]"] ;
10 -> 11 ;
12 [label="gini = 0.0\nsamples = 3364\nvalue = [0, 3364]"] ;
11 -> 12 ;
13 [label="X[5] <= -0.7359\ngini = 0.0096\nsamples = 207\nvalue = [1, 206]"] ;
11 -> 13 ;
14 [label="X[4] <= -0.3537\ngini = 0.0435\nsamples = 45\nvalue = [1, 44]"] ;
13 -> 14 ;
15 [label="gini = 0.0\nsamples = 43\nvalue = [0, 43]"] ;
14 -> 15 ;
16 [label="X[2] <= -0.1846\ngini = 0.5\nsamples = 2\nvalue = [1, 1]"] ;
14 -> 16 ;
17 [label="gini = 0.0\nsamples = 1\nvalue = [0, 1]"] ;
16 -> 17 ;
18 [label="gini = 0.0\nsamples = 1\nvalue = [1, 0]"] ;
16 -> 18 ;
19 [label="gini = 0.0\nsamples = 162\nvalue = [0, 162]"] ;
13 -> 19 ;
20 [label="X[4] <= -0.57\ngini = 0.142\nsamples = 13\nvalue = [1, 12]"] ;
10 -> 20 ;
21 [label="X[0] <= -0.3551\ngini = 0.5\nsamples = 2\nvalue = [1, 1]"] ;
20 -> 21 ;
22 [label="gini = 0.0\nsamples = 1\nvalue = [0, 1]"] ;
21 -> 22 ;
23 [label="gini = 0.0\nsamples = 1\nvalue = [1, 0]"] ;
21 -> 23 ;
24 [label="gini = 0.0\nsamples = 11\nvalue = [0, 11]"] ;
20 -> 24 ;
25 [label="gini = 0.0\nsamples = 1\nvalue = [1, 0]"] ;
9 -> 25 ;
26 [label="X[3] <= -0.2604\ngini = 0.375\nsamples = 4\nvalue = [3, 1]"] ;
8 -> 26 ;
27 [label="gini = 0.0\nsamples = 3\nvalue = [3, 0]"] ;
26 -> 27 ;
28 [label="gini = 0.0\nsamples = 1\nvalue = [0, 1]"] ;
26 -> 28 ;
29 [label="gini = 0.0\nsamples = 8\nvalue = [8, 0]"] ;
7 -> 29 ;
30 [label="X[4] <= -0.1552\ngini = 0.1107\nsamples = 17\nvalue = [16, 1]"] ;
6 -> 30 ;
31 [label="gini = 0.0\nsamples = 16\nvalue = [16, 0]"] ;
30 -> 31 ;
32 [label="gini = 0.0\nsamples = 1\nvalue = [0, 1]"] ;
30 -> 32 ;
33 [label="X[3] <= -1.064\ngini = 0.1701\nsamples = 245\nvalue = [222, 23]"] ;
5 -> 33 ;
34 [label="X[2] <= -0.3003\ngini = 0.4628\nsamples = 11\nvalue = [7, 4]"] ;
33 -> 34 ;
35 [label="X[3] <= -1.1167\ngini = 0.5\nsamples = 8\nvalue = [4, 4]"] ;
34 -> 35 ;
36 [label="gini = 0.0\nsamples = 3\nvalue = [3, 0]"] ;
35 -> 36 ;
37 [label="X[112] <= 3.8348\ngini = 0.32\nsamples = 5\nvalue = [1, 4]"] ;
35 -> 37 ;
38 [label="gini = 0.0\nsamples = 4\nvalue = [0, 4]"] ;
37 -> 38 ;
39 [label="gini = 0.0\nsamples = 1\nvalue = [1, 0]"] ;
37 -> 39 ;
40 [label="gini = 0.0\nsamples = 3\nvalue = [3, 0]"] ;
34 -> 40 ;
41 [label="X[6] <= -0.3379\ngini = 0.1492\nsamples = 234\nvalue = [215, 19]"] ;
33 -> 41 ;
42 [label="X[216] <= 6.3172\ngini = 0.0601\nsamples = 129\nvalue = [125, 4]"] ;
41 -> 42 ;
43 [label="X[23] <= 4.2986\ngini = 0.0465\nsamples = 126\nvalue = [123, 3]"] ;
42 -> 43 ;
44 [label="X[0] <= -1.3427\ngini = 0.032\nsamples = 123\nvalue = [121, 2]"] ;
43 -> 44 ;
45 [label="X[6] <= -0.5307\ngini = 0.32\nsamples = 5\nvalue = [4, 1]"] ;
44 -> 45 ;
46 [label="gini = 0.0\nsamples = 4\nvalue = [4, 0]"] ;
45 -> 46 ;
47 [label="gini = 0.0\nsamples = 1\nvalue = [0, 1]"] ;
45 -> 47 ;
48 [label="X[63] <= 2.9322\ngini = 0.0168\nsamples = 118\nvalue = [117, 1]"] ;
44 -> 48 ;
49 [label="gini = 0.0\nsamples = 109\nvalue = [109, 0]"] ;
48 -> 49 ;
50 [label="X[0] <= 0.0832\ngini = 0.1975\nsamples = 9\nvalue = [8, 1]"] ;
48 -> 50 ;
51 [label="gini = 0.0\nsamples = 7\nvalue = [7, 0]"] ;
50 -> 51 ;
52 [label="X[6] <= -0.5262\ngini = 0.5\nsamples = 2\nvalue = [1, 1]"] ;
50 -> 52 ;
53 [label="gini = 0.0\nsamples = 1\nvalue = [1, 0]"] ;
52 -> 53 ;
54 [label="gini = 0.0\nsamples = 1\nvalue = [0, 1]"] ;
52 -> 54 ;
55 [label="X[4] <= -0.6214\ngini = 0.4444\nsamples = 3\nvalue = [2, 1]"] ;
43 -> 55 ;
56 [label="gini = 0.0\nsamples = 1\nvalue = [0, 1]"] ;
55 -> 56 ;
57 [label="gini = 0.0\nsamples = 2\nvalue = [2, 0]"] ;
55 -> 57 ;
58 [label="X[3] <= -0.6249\ngini = 0.4444\nsamples = 3\nvalue = [2, 1]"] ;
42 -> 58 ;
59 [label="gini = 0.0\nsamples = 2\nvalue = [2, 0]"] ;
58 -> 59 ;
60 [label="gini = 0.0\nsamples = 1\nvalue = [0, 1]"] ;
58 -> 60 ;
61 [label="X[116] <= 3.9872\ngini = 0.2449\nsamples = 105\nvalue = [90, 15]"] ;
41 -> 61 ;
62 [label="X[6] <= -0.3091\ngini = 0.2224\nsamples = 102\nvalue = [89, 13]"] ;
61 -> 62 ;
63 [label="X[3] <= -0.0452\ngini = 0.5\nsamples = 6\nvalue = [3, 3]"] ;
62 -> 63 ;
64 [label="gini = 0.0\nsamples = 3\nvalue = [3, 0]"] ;
63 -> 64 ;
65 [label="gini = 0.0\nsamples = 3\nvalue = [0, 3]"] ;
63 -> 65 ;
66 [label="X[2] <= 2.67\ngini = 0.1866\nsamples = 96\nvalue = [86, 10]"] ;
62 -> 66 ;
67 [label="X[150] <= 2.2806\ngini = 0.1715\nsamples = 95\nvalue = [86, 9]"] ;
66 -> 67 ;
68 [label="X[153] <= 2.7406\ngini = 0.142\nsamples = 91\nvalue = [84, 7]"] ;
67 -> 68 ;
69 [label="X[211] <= 2.8738\ngini = 0.1257\nsamples = 89\nvalue = [83, 6]"] ;
68 -> 69 ;
70 [label="X[185] <= 3.5429\ngini = 0.1083\nsamples = 87\nvalue = [82, 5]"] ;
69 -> 70 ;
71 [label="X[110] <= 4.2062\ngini = 0.0907\nsamples = 84\nvalue = [80, 4]"] ;
70 -> 71 ;
72 [label="X[6] <= -0.2818\ngini = 0.0713\nsamples = 81\nvalue = [78, 3]"] ;
71 -> 72 ;
73 [label="X[6] <= -0.2923\ngini = 0.4444\nsamples = 3\nvalue = [2, 1]"] ;
72 -> 73 ;
74 [label="gini = 0.0\nsamples = 2\nvalue = [2, 0]"] ;
73 -> 74 ;
75 [label="gini = 0.0\nsamples = 1\nvalue = [0, 1]"] ;
73 -> 75 ;
76 [label="X[148] <= 2.4586\ngini = 0.05\nsamples = 78\nvalue = [76, 2]"] ;
72 -> 76 ;
77 [label="X[2] <= -0.3471\ngini = 0.0274\nsamples = 72\nvalue = [71, 1]"] ;
76 -> 77 ;
78 [label="X[2] <= -0.3524\ngini = 0.2778\nsamples = 6\nvalue = [5, 1]"] ;
77 -> 78 ;
79 [label="gini = 0.0\nsamples = 5\nvalue = [5, 0]"] ;
78 -> 79 ;
80 [label="gini = 0.0\nsamples = 1\nvalue = [0, 1]"] ;
78 -> 80 ;
81 [label="gini = 0.0\nsamples = 66\nvalue = [66, 0]"] ;
77 -> 81 ;
82 [label="X[5] <= 1.313\ngini = 0.2778\nsamples = 6\nvalue = [5, 1]"] ;
76 -> 82 ;
83 [label="gini = 0.0\nsamples = 5\nvalue = [5, 0]"] ;
82 -> 83 ;
84 [label="gini = 0.0\nsamples = 1\nvalue = [0, 1]"] ;
82 -> 84 ;
85 [label="X[6] <= -0.0794\ngini = 0.4444\nsamples = 3\nvalue = [2, 1]"] ;
71 -> 85 ;
86 [label="gini = 0.0\nsamples = 2\nvalue = [2, 0]"] ;
85 -> 86 ;
87 [label="gini = 0.0\nsamples = 1\nvalue = [0, 1]"] ;
85 -> 87 ;
88 [label="X[6] <= 0.0061\ngini = 0.4444\nsamples = 3\nvalue = [2, 1]"] ;
70 -> 88 ;
89 [label="gini = 0.0\nsamples = 2\nvalue = [2, 0]"] ;
88 -> 89 ;
90 [label="gini = 0.0\nsamples = 1\nvalue = [0, 1]"] ;
88 -> 90 ;
91 [label="X[3] <= 0.2666\ngini = 0.5\nsamples = 2\nvalue = [1, 1]"] ;
69 -> 91 ;
92 [label="gini = 0.0\nsamples = 1\nvalue = [0, 1]"] ;
91 -> 92 ;
93 [label="gini = 0.0\nsamples = 1\nvalue = [1, 0]"] ;
91 -> 93 ;
94 [label="X[0] <= -0.233\ngini = 0.5\nsamples = 2\nvalue = [1, 1]"] ;
68 -> 94 ;
95 [label="gini = 0.0\nsamples = 1\nvalue = [1, 0]"] ;
94 -> 95 ;
96 [label="gini = 0.0\nsamples = 1\nvalue = [0, 1]"] ;
94 -> 96 ;
97 [label="X[4] <= -0.1594\ngini = 0.5\nsamples = 4\nvalue = [2, 2]"] ;
67 -> 97 ;
98 [label="gini = 0.0\nsamples = 1\nvalue = [0, 1]"] ;
97 -> 98 ;
99 [label="X[6] <= 0.0781\ngini = 0.4444\nsamples = 3\nvalue = [2, 1]"] ;
97 -> 99 ;
100 [label="gini = 0.0\nsamples = 1\nvalue = [0, 1]"] ;
99 -> 100 ;
101 [label="gini = 0.0\nsamples = 2\nvalue = [2, 0]"] ;
99 -> 101 ;
102 [label="gini = 0.0\nsamples = 1\nvalue = [0, 1]"] ;
66 -> 102 ;
103 [label="X[0] <= -0.0166\ngini = 0.4444\nsamples = 3\nvalue = [1, 2]"] ;
61 -> 103 ;
104 [label="gini = 0.0\nsamples = 1\nvalue = [1, 0]"] ;
103 -> 104 ;
105 [label="gini = 0.0\nsamples = 2\nvalue = [0, 2]"] ;
103 -> 105 ;
106 [label="X[235] <= 8.1411\ngini = 0.1749\nsamples = 795\nvalue = [718, 77]"] ;
4 -> 106 ;
107 [label="X[6] <= 0.2638\ngini = 0.1715\nsamples = 792\nvalue = [717, 75]"] ;
106 -> 107 ;
108 [label="X[59] <= 16.5773\ngini = 0.1497\nsamples = 687\nvalue = [631, 56]"] ;
107 -> 108 ;
109 [label="X[313] <= 40.652\ngini = 0.1475\nsamples = 686\nvalue = [631, 55]"] ;
108 -> 109 ;
110 [label="X[54] <= 10.582\ngini = 0.1452\nsamples = 685\nvalue = [631, 54]"] ;
109 -> 110 ;
111 [label="X[2] <= 0.0092\ngini = 0.143\nsamples = 684\nvalue = [631, 53]"] ;
110 -> 111 ;
112 [label="X[2] <= 0.0027\ngini = 0.1648\nsamples = 563\nvalue = [512, 51]"] ;
111 -> 112 ;
113 [label="X[5] <= 6.2393\ngini = 0.1621\nsamples = 562\nvalue = [512, 50]"] ;
112 -> 113 ;
114 [label="X[112] <= 3.8348\ngini = 0.1594\nsamples = 561\nvalue = [512, 49]"] ;
113 -> 114 ;
115 [label="X[6] <= -0.6945\ngini = 0.1548\nsamples = 556\nvalue = [509, 47]"] ;
114 -> 115 ;
116 [label="X[217] <= 15.7242\ngini = 0.0836\nsamples = 206\nvalue = [197, 9]"] ;
115 -> 116 ;
117 [label="X[291] <= 20.3122\ngini = 0.075\nsamples = 205\nvalue = [197, 8]"] ;
116 -> 117 ;
118 [label="X[142] <= 8.3731\ngini = 0.0663\nsamples = 204\nvalue = [197, 7]"] ;
117 -> 118 ;
119 [label="X[315] <= 9.0508\ngini = 0.0574\nsamples = 203\nvalue = [197, 6]"] ;
118 -> 119 ;
120 [label="X[187] <= 5.8465\ngini = 0.0485\nsamples = 201\nvalue = [196, 5]"] ;
119 -> 120 ;
121 [label="X[149] <= 2.3913\ngini = 0.0396\nsamples = 198\nvalue = [194, 4]"] ;
120 -> 121 ;
122 [label="X[18] <= 2.6869\ngini = 0.0215\nsamples = 184\nvalue = [182, 2]"] ;
121 -> 122 ;
123 [label="X[148] <= 2.4586\ngini = 0.0112\nsamples = 178\nvalue = [177, 1]"] ;
122 -> 123 ;
124 [label="gini = 0.0\nsamples = 165\nvalue = [165, 0]"] ;
123 -> 124 ;
125 [label="X[2] <= -0.2054\ngini = 0.142\nsamples = 13\nvalue = [12, 1]"] ;
123 -> 125 ;
126 [label="gini = 0.0\nsamples = 11\nvalue = [11, 0]"] ;
125 -> 126 ;
127 [label="X[0] <= -0.8433\ngini = 0.5\nsamples = 2\nvalue = [1, 1]"] ;
125 -> 127 ;
128 [label="gini = 0.0\nsamples = 1\nvalue = [1, 0]"] ;
127 -> 128 ;
129 [label="gini = 0.0\nsamples = 1\nvalue = [0, 1]"] ;
127 -> 129 ;
130 [label="X[4] <= -0.7103\ngini = 0.2778\nsamples = 6\nvalue = [5, 1]"] ;
122 -> 130 ;
131 [label="gini = 0.0\nsamples = 1\nvalue = [0, 1]"] ;
130 -> 131 ;
132 [label="gini = 0.0\nsamples = 5\nvalue = [5, 0]"] ;
130 -> 132 ;
133 [label="X[2] <= -0.3471\ngini = 0.2449\nsamples = 14\nvalue = [12, 2]"] ;
121 -> 133 ;
134 [label="gini = 0.0\nsamples = 1\nvalue = [0, 1]"] ;
133 -> 134 ;
135 [label="X[5] <= 0.277\ngini = 0.142\nsamples = 13\nvalue = [12, 1]"] ;
133 -> 135 ;
136 [label="gini = 0.0\nsamples = 11\nvalue = [11, 0]"] ;
135 -> 136 ;
137 [label="X[2] <= -0.312\ngini = 0.5\nsamples = 2\nvalue = [1, 1]"] ;
135 -> 137 ;
138 [label="gini = 0.0\nsamples = 1\nvalue = [0, 1]"] ;
137 -> 138 ;
139 [label="gini = 0.0\nsamples = 1\nvalue = [1, 0]"] ;
137 -> 139 ;
140 [label="X[0] <= -0.9598\ngini = 0.4444\nsamples = 3\nvalue = [2, 1]"] ;
120 -> 140 ;
141 [label="gini = 0.0\nsamples = 1\nvalue = [0, 1]"] ;
140 -> 141 ;
142 [label="gini = 0.0\nsamples = 2\nvalue = [2, 0]"] ;
140 -> 142 ;
143 [label="X[2] <= -0.3133\ngini = 0.5\nsamples = 2\nvalue = [1, 1]"] ;
119 -> 143 ;
144 [label="gini = 0.0\nsamples = 1\nvalue = [1, 0]"] ;
143 -> 144 ;
145 [label="gini = 0.0\nsamples = 1\nvalue = [0, 1]"] ;
143 -> 145 ;
146 [label="gini = 0.0\nsamples = 1\nvalue = [0, 1]"] ;
118 -> 146 ;
147 [label="gini = 0.0\nsamples = 1\nvalue = [0, 1]"] ;
117 -> 147 ;
148 [label="gini = 0.0\nsamples = 1\nvalue = [0, 1]"] ;
116 -> 148 ;
149 [label="X[6] <= -0.6746\ngini = 0.1936\nsamples = 350\nvalue = [312, 38]"] ;
115 -> 149 ;
150 [label="X[63] <= 2.9322\ngini = 0.4132\nsamples = 24\nvalue = [17, 7]"] ;
149 -> 150 ;
151 [label="X[5] <= 0.3921\ngini = 0.3512\nsamples = 22\nvalue = [17, 5]"] ;
150 -> 151 ;
152 [label="X[2] <= -0.3458\ngini = 0.1244\nsamples = 15\nvalue = [14, 1]"] ;
151 -> 152 ;
153 [label="X[4] <= -0.5459\ngini = 0.5\nsamples = 2\nvalue = [1, 1]"] ;
152 -> 153 ;
154 [label="gini = 0.0\nsamples = 1\nvalue = [0, 1]"] ;
153 -> 154 ;
155 [label="gini = 0.0\nsamples = 1\nvalue = [1, 0]"] ;
153 -> 155 ;
156 [label="gini = 0.0\nsamples = 13\nvalue = [13, 0]"] ;
152 -> 156 ;
157 [label="X[1] <= -0.3859\ngini = 0.4898\nsamples = 7\nvalue = [3, 4]"] ;
151 -> 157 ;
158 [label="gini = 0.0\nsamples = 3\nvalue = [0, 3]"] ;
157 -> 158 ;
159 [label="X[153] <= 2.7406\ngini = 0.375\nsamples = 4\nvalue = [3, 1]"] ;
157 -> 159 ;
160 [label="gini = 0.0\nsamples = 3\nvalue = [3, 0]"] ;
159 -> 160 ;
161 [label="gini = 0.0\nsamples = 1\nvalue = [0, 1]"] ;
159 -> 161 ;
162 [label="gini = 0.0\nsamples = 2\nvalue = [0, 2]"] ;
150 -> 162 ;
163 [label="X[32] <= 6.5101\ngini = 0.1721\nsamples = 326\nvalue = [295, 31]"] ;
149 -> 163 ;
164 [label="X[23] <= 4.2986\ngini = 0.1676\nsamples = 325\nvalue = [295, 30]"] ;
163 -> 164 ;
165 [label="X[3] <= -1.1211\ngini = 0.163\nsamples = 324\nvalue = [295, 29]"] ;
164 -> 165 ;
166 [label="gini = 0.0\nsamples = 1\nvalue = [0, 1]"] ;
165 -> 166 ;
167 [label="X[64] <= 3.7855\ngini = 0.1583\nsamples = 323\nvalue = [295, 28]"] ;
165 -> 167 ;
168 [label="X[2] <= -0.3315\ngini = 0.1497\nsamples = 319\nvalue = [293, 26]"] ;
167 -> 168 ;
169 [label="X[187] <= 5.8465\ngini = 0.027\nsamples = 73\nvalue = [72, 1]"] ;
168 -> 169 ;
170 [label="gini = 0.0\nsamples = 69\nvalue = [69, 0]"] ;
169 -> 170 ;
171 [label="X[3] <= -0.2516\ngini = 0.375\nsamples = 4\nvalue = [3, 1]"] ;
169 -> 171 ;
172 [label="gini = 0.0\nsamples = 3\nvalue = [3, 0]"] ;
171 -> 172 ;
173 [label="gini = 0.0\nsamples = 1\nvalue = [0, 1]"] ;
171 -> 173 ;
174 [label="X[4] <= -0.6716\ngini = 0.1826\nsamples = 246\nvalue = [221, 25]"] ;
168 -> 174 ;
175 [label="X[2] <= -0.273\ngini = 0.5\nsamples = 4\nvalue = [2, 2]"] ;
174 -> 175 ;
176 [label="gini = 0.0\nsamples = 2\nvalue = [0, 2]"] ;
175 -> 176 ;
177 [label="gini = 0.0\nsamples = 2\nvalue = [2, 0]"] ;
175 -> 177 ;
178 [label="X[316] <= 5.0911\ngini = 0.172\nsamples = 242\nvalue = [219, 23]"] ;
174 -> 178 ;
179 [label="X[274] <= 4.19\ngini = 0.1609\nsamples = 238\nvalue = [217, 21]"] ;
178 -> 179 ;
180 [label="X[0] <= -1.3427\ngini = 0.1551\nsamples = 236\nvalue = [216, 20]"] ;
179 -> 180 ;
181 [label="X[2] <= -0.2236\ngini = 0.5\nsamples = 2\nvalue = [1, 1]"] ;
180 -> 181 ;
182 [label="gini = 0.0\nsamples = 1\nvalue = [0, 1]"] ;
181 -> 182 ;
183 [label="gini = 0.0\nsamples = 1\nvalue = [1, 0]"] ;
181 -> 183 ;
184 [label="X[4] <= 0.0588\ngini = 0.1492\nsamples = 234\nvalue = [215, 19]"] ;
180 -> 184 ;
185 [label="X[4] <= 0.0479\ngini = 0.1942\nsamples = 156\nvalue = [139, 17]"] ;
184 -> 185 ;
186 [label="X[280] <= 6.7214\ngini = 0.1851\nsamples = 155\nvalue = [139, 16]"] ;
185 -> 186 ;
187 [label="X[0] <= 0.8766\ngini = 0.1758\nsamples = 154\nvalue = [139, 15]"] ;
186 -> 187 ;
188 [label="X[5] <= 0.185\ngini = 0.1593\nsamples = 149\nvalue = [136, 13]"] ;
187 -> 188 ;
189 [label="X[185] <= 3.5429\ngini = 0.1049\nsamples = 108\nvalue = [102, 6]"] ;
188 -> 189 ;
190 [label="X[156] <= 16.1339\ngini = 0.0891\nsamples = 107\nvalue = [102, 5]"] ;
189 -> 190 ;
191 [label="X[2] <= -0.2665\ngini = 0.0733\nsamples = 105\nvalue = [101, 4]"] ;
190 -> 191 ;
192 [label="X[2] <= -0.2704\ngini = 0.142\nsamples = 52\nvalue = [48, 4]"] ;
191 -> 192 ;
193 [label="X[134] <= 3.5995\ngini = 0.1128\nsamples = 50\nvalue = [47, 3]"] ;
192 -> 193 ;
194 [label="X[148] <= 2.4586\ngini = 0.0815\nsamples = 47\nvalue = [45, 2]"] ;
193 -> 194 ;
195 [label="X[2] <= -0.2743\ngini = 0.0454\nsamples = 43\nvalue = [42, 1]"] ;
194 -> 195 ;
196 [label="gini = 0.0\nsamples = 38\nvalue = [38, 0]"] ;
195 -> 196 ;
197 [label="X[151] <= 2.47\ngini = 0.32\nsamples = 5\nvalue = [4, 1]"] ;
195 -> 197 ;
198 [label="gini = 0.0\nsamples = 4\nvalue = [4, 0]"] ;
197 -> 198 ;
199 [label="gini = 0.0\nsamples = 1\nvalue = [0, 1]"] ;
197 -> 199 ;
200 [label="X[1] <= 0.1977\ngini = 0.375\nsamples = 4\nvalue = [3, 1]"] ;
194 -> 200 ;
201 [label="gini = 0.0\nsamples = 3\nvalue = [3, 0]"] ;
200 -> 201 ;
202 [label="gini = 0.0\nsamples = 1\nvalue = [0, 1]"] ;
200 -> 202 ;
203 [label="X[2] <= -0.3094\ngini = 0.4444\nsamples = 3\nvalue = [2, 1]"] ;
193 -> 203 ;
204 [label="gini = 0.0\nsamples = 1\nvalue = [0, 1]"] ;
203 -> 204 ;
205 [label="gini = 0.0\nsamples = 2\nvalue = [2, 0]"] ;
203 -> 205 ;
206 [label="X[228] <= 5.5002\ngini = 0.5\nsamples = 2\nvalue = [1, 1]"] ;
192 -> 206 ;
207 [label="gini = 0.0\nsamples = 1\nvalue = [0, 1]"] ;
206 -> 207 ;
208 [label="gini = 0.0\nsamples = 1\nvalue = [1, 0]"] ;
206 -> 208 ;
209 [label="gini = 0.0\nsamples = 53\nvalue = [53, 0]"] ;
191 -> 209 ;
210 [label="X[4] <= -0.3216\ngini = 0.5\nsamples = 2\nvalue = [1, 1]"] ;
190 -> 210 ;
211 [label="gini = 0.0\nsamples = 1\nvalue = [0, 1]"] ;
210 -> 211 ;
212 [label="gini = 0.0\nsamples = 1\nvalue = [1, 0]"] ;
210 -> 212 ;
213 [label="gini = 0.0\nsamples = 1\nvalue = [0, 1]"] ;
189 -> 213 ;
214 [label="X[4] <= -0.2185\ngini = 0.2832\nsamples = 41\nvalue = [34, 7]"] ;
188 -> 214 ;
215 [label="X[3] <= -0.4492\ngini = 0.0799\nsamples = 24\nvalue = [23, 1]"] ;
214 -> 215 ;
216 [label="gini = 0.0\nsamples = 1\nvalue = [0, 1]"] ;
215 -> 216 ;
217 [label="gini = 0.0\nsamples = 23\nvalue = [23, 0]"] ;
215 -> 217 ;
218 [label="X[3] <= 0.3325\ngini = 0.4567\nsamples = 17\nvalue = [11, 6]"] ;
214 -> 218 ;
219 [label="X[1] <= 0.7813\ngini = 0.5\nsamples = 12\nvalue = [6, 6]"] ;
218 -> 219 ;
220 [label="X[0] <= -0.3551\ngini = 0.4444\nsamples = 9\nvalue = [3, 6]"] ;
219 -> 220 ;
221 [label="gini = 0.0\nsamples = 2\nvalue = [2, 0]"] ;
220 -> 221 ;
222 [label="X[246] <= 17.5855\ngini = 0.2449\nsamples = 7\nvalue = [1, 6]"] ;
220 -> 222 ;
223 [label="gini = 0.0\nsamples = 6\nvalue = [0, 6]"] ;
222 -> 223 ;
224 [label="gini = 0.0\nsamples = 1\nvalue = [1, 0]"] ;
222 -> 224 ;
225 [label="gini = 0.0\nsamples = 3\nvalue = [3, 0]"] ;
219 -> 225 ;
226 [label="gini = 0.0\nsamples = 5\nvalue = [5, 0]"] ;
218 -> 226 ;
227 [label="X[3] <= -0.234\ngini = 0.48\nsamples = 5\nvalue = [3, 2]"] ;
187 -> 227 ;
228 [label="gini = 0.0\nsamples = 2\nvalue = [0, 2]"] ;
227 -> 228 ;
229 [label="gini = 0.0\nsamples = 3\nvalue = [3, 0]"] ;
227 -> 229 ;
230 [label="gini = 0.0\nsamples = 1\nvalue = [0, 1]"] ;
186 -> 230 ;
231 [label="gini = 0.0\nsamples = 1\nvalue = [0, 1]"] ;
185 -> 231 ;
232 [label="X[252] <= 9.7281\ngini = 0.05\nsamples = 78\nvalue = [76, 2]"] ;
184 -> 232 ;
233 [label="X[149] <= 2.3913\ngini = 0.026\nsamples = 76\nvalue = [75, 1]"] ;
232 -> 233 ;
234 [label="gini = 0.0\nsamples = 74\nvalue = [74, 0]"] ;
233 -> 234 ;
235 [label="X[3] <= 0.5477\ngini = 0.5\nsamples = 2\nvalue = [1, 1]"] ;
233 -> 235 ;
236 [label="gini = 0.0\nsamples = 1\nvalue = [0, 1]"] ;
235 -> 236 ;
237 [label="gini = 0.0\nsamples = 1\nvalue = [1, 0]"] ;
235 -> 237 ;
238 [label="X[6] <= -0.6006\ngini = 0.5\nsamples = 2\nvalue = [1, 1]"] ;
232 -> 238 ;
239 [label="gini = 0.0\nsamples = 1\nvalue = [0, 1]"] ;
238 -> 239 ;
240 [label="gini = 0.0\nsamples = 1\nvalue = [1, 0]"] ;
238 -> 240 ;
241 [label="X[4] <= -0.4324\ngini = 0.5\nsamples = 2\nvalue = [1, 1]"] ;
179 -> 241 ;
242 [label="gini = 0.0\nsamples = 1\nvalue = [1, 0]"] ;
241 -> 242 ;
243 [label="gini = 0.0\nsamples = 1\nvalue = [0, 1]"] ;
241 -> 243 ;
244 [label="X[1] <= 0.4895\ngini = 0.5\nsamples = 4\nvalue = [2, 2]"] ;
178 -> 244 ;
245 [label="gini = 0.0\nsamples = 2\nvalue = [2, 0]"] ;
244 -> 245 ;
246 [label="gini = 0.0\nsamples = 2\nvalue = [0, 2]"] ;
244 -> 246 ;
247 [label="X[5] <= -0.851\ngini = 0.5\nsamples = 4\nvalue = [2, 2]"] ;
167 -> 247 ;
248 [label="gini = 0.0\nsamples = 1\nvalue = [0, 1]"] ;
247 -> 248 ;
249 [label="X[0] <= -0.3551\ngini = 0.4444\nsamples = 3\nvalue = [2, 1]"] ;
247 -> 249 ;
250 [label="gini = 0.0\nsamples = 2\nvalue = [2, 0]"] ;
249 -> 250 ;
251 [label="gini = 0.0\nsamples = 1\nvalue = [0, 1]"] ;
249 -> 251 ;
252 [label="gini = 0.0\nsamples = 1\nvalue = [0, 1]"] ;
164 -> 252 ;
253 [label="gini = 0.0\nsamples = 1\nvalue = [0, 1]"] ;
163 -> 253 ;
254 [label="X[5] <= -0.4136\ngini = 0.48\nsamples = 5\nvalue = [3, 2]"] ;
114 -> 254 ;
255 [label="gini = 0.0\nsamples = 2\nvalue = [0, 2]"] ;
254 -> 255 ;
256 [label="gini = 0.0\nsamples = 3\nvalue = [3, 0]"] ;
254 -> 256 ;
257 [label="gini = 0.0\nsamples = 1\nvalue = [0, 1]"] ;
113 -> 257 ;
258 [label="gini = 0.0\nsamples = 1\nvalue = [0, 1]"] ;
112 -> 258 ;
259 [label="X[228] <= 5.5002\ngini = 0.0325\nsamples = 121\nvalue = [119, 2]"] ;
111 -> 259 ;
260 [label="X[316] <= 5.0911\ngini = 0.0167\nsamples = 119\nvalue = [118, 1]"] ;
259 -> 260 ;
261 [label="gini = 0.0\nsamples = 117\nvalue = [117, 0]"] ;
260 -> 261 ;
262 [label="X[3] <= 0.517\ngini = 0.5\nsamples = 2\nvalue = [1, 1]"] ;
260 -> 262 ;
263 [label="gini = 0.0\nsamples = 1\nvalue = [0, 1]"] ;
262 -> 263 ;
264 [label="gini = 0.0\nsamples = 1\nvalue = [1, 0]"] ;
262 -> 264 ;
265 [label="X[5] <= 0.6454\ngini = 0.5\nsamples = 2\nvalue = [1, 1]"] ;
259 -> 265 ;
266 [label="gini = 0.0\nsamples = 1\nvalue = [0, 1]"] ;
265 -> 266 ;
267 [label="gini = 0.0\nsamples = 1\nvalue = [1, 0]"] ;
265 -> 267 ;
268 [label="gini = 0.0\nsamples = 1\nvalue = [0, 1]"] ;
110 -> 268 ;
269 [label="gini = 0.0\nsamples = 1\nvalue = [0, 1]"] ;
109 -> 269 ;
270 [label="gini = 0.0\nsamples = 1\nvalue = [0, 1]"] ;
108 -> 270 ;
271 [label="X[6] <= 0.3237\ngini = 0.2964\nsamples = 105\nvalue = [86, 19]"] ;
107 -> 271 ;
272 [label="X[0] <= -0.0832\ngini = 0.4959\nsamples = 11\nvalue = [5, 6]"] ;
271 -> 272 ;
273 [label="X[150] <= 2.2806\ngini = 0.2449\nsamples = 7\nvalue = [1, 6]"] ;
272 -> 273 ;
274 [label="gini = 0.0\nsamples = 6\nvalue = [0, 6]"] ;
273 -> 274 ;
275 [label="gini = 0.0\nsamples = 1\nvalue = [1, 0]"] ;
273 -> 275 ;
276 [label="gini = 0.0\nsamples = 4\nvalue = [4, 0]"] ;
272 -> 276 ;
277 [label="X[4] <= -0.5405\ngini = 0.2383\nsamples = 94\nvalue = [81, 13]"] ;
271 -> 277 ;
278 [label="X[2] <= -0.3224\ngini = 0.4592\nsamples = 14\nvalue = [9, 5]"] ;
277 -> 278 ;
279 [label="gini = 0.0\nsamples = 6\nvalue = [6, 0]"] ;
278 -> 279 ;
280 [label="X[6] <= 0.5039\ngini = 0.4688\nsamples = 8\nvalue = [3, 5]"] ;
278 -> 280 ;
281 [label="gini = 0.0\nsamples = 2\nvalue = [2, 0]"] ;
280 -> 281 ;
282 [label="X[0] <= -0.6325\ngini = 0.2778\nsamples = 6\nvalue = [1, 5]"] ;
280 -> 282 ;
283 [label="gini = 0.0\nsamples = 1\nvalue = [1, 0]"] ;
282 -> 283 ;
284 [label="gini = 0.0\nsamples = 5\nvalue = [0, 5]"] ;
282 -> 284 ;
285 [label="X[200] <= 6.8515\ngini = 0.18\nsamples = 80\nvalue = [72, 8]"] ;
277 -> 285 ;
286 [label="X[164] <= 15.3441\ngini = 0.1615\nsamples = 79\nvalue = [72, 7]"] ;
285 -> 286 ;
287 [label="X[64] <= 3.7855\ngini = 0.142\nsamples = 78\nvalue = [72, 6]"] ;
286 -> 287 ;
288 [label="X[122] <= 5.7044\ngini = 0.1229\nsamples = 76\nvalue = [71, 5]"] ;
287 -> 288 ;
289 [label="X[111] <= 5.9768\ngini = 0.1023\nsamples = 74\nvalue = [70, 4]"] ;
288 -> 289 ;
290 [label="X[148] <= 2.4586\ngini = 0.0809\nsamples = 71\nvalue = [68, 3]"] ;
289 -> 290 ;
291 [label="X[5] <= -0.5977\ngini = 0.0571\nsamples = 68\nvalue = [66, 2]"] ;
290 -> 291 ;
292 [label="X[154] <= 1.741\ngini = 0.375\nsamples = 4\nvalue = [3, 1]"] ;
291 -> 292 ;
293 [label="gini = 0.0\nsamples = 3\nvalue = [3, 0]"] ;
292 -> 293 ;
294 [label="gini = 0.0\nsamples = 1\nvalue = [0, 1]"] ;
292 -> 294 ;
295 [label="X[150] <= 2.2806\ngini = 0.0308\nsamples = 64\nvalue = [63, 1]"] ;
291 -> 295 ;
296 [label="gini = 0.0\nsamples = 60\nvalue = [60, 0]"] ;
295 -> 296 ;
297 [label="X[2] <= -0.1547\ngini = 0.375\nsamples = 4\nvalue = [3, 1]"] ;
295 -> 297 ;
298 [label="gini = 0.0\nsamples = 3\nvalue = [3, 0]"] ;
297 -> 298 ;
299 [label="gini = 0.0\nsamples = 1\nvalue = [0, 1]"] ;
297 -> 299 ;
300 [label="X[4] <= -0.0865\ngini = 0.4444\nsamples = 3\nvalue = [2, 1]"] ;
290 -> 300 ;
301 [label="gini = 0.0\nsamples = 2\nvalue = [2, 0]"] ;
300 -> 301 ;
302 [label="gini = 0.0\nsamples = 1\nvalue = [0, 1]"] ;
300 -> 302 ;
303 [label="X[5] <= 1.1518\ngini = 0.4444\nsamples = 3\nvalue = [2, 1]"] ;
289 -> 303 ;
304 [label="gini = 0.0\nsamples = 2\nvalue = [2, 0]"] ;
303 -> 304 ;
305 [label="gini = 0.0\nsamples = 1\nvalue = [0, 1]"] ;
303 -> 305 ;
306 [label="X[4] <= -0.26\ngini = 0.5\nsamples = 2\nvalue = [1, 1]"] ;
288 -> 306 ;
307 [label="gini = 0.0\nsamples = 1\nvalue = [0, 1]"] ;
306 -> 307 ;
308 [label="gini = 0.0\nsamples = 1\nvalue = [1, 0]"] ;
306 -> 308 ;
309 [label="X[2] <= -0.2756\ngini = 0.5\nsamples = 2\nvalue = [1, 1]"] ;
287 -> 309 ;
310 [label="gini = 0.0\nsamples = 1\nvalue = [1, 0]"] ;
309 -> 310 ;
311 [label="gini = 0.0\nsamples = 1\nvalue = [0, 1]"] ;
309 -> 311 ;
312 [label="gini = 0.0\nsamples = 1\nvalue = [0, 1]"] ;
286 -> 312 ;
313 [label="gini = 0.0\nsamples = 1\nvalue = [0, 1]"] ;
285 -> 313 ;
314 [label="X[6] <= -0.5433\ngini = 0.4444\nsamples = 3\nvalue = [1, 2]"] ;
106 -> 314 ;
315 [label="gini = 0.0\nsamples = 2\nvalue = [0, 2]"] ;
314 -> 315 ;
316 [label="gini = 0.0\nsamples = 1\nvalue = [1, 0]"] ;
314 -> 316 ;
317 [label="X[6] <= -0.3387\ngini = 0.2983\nsamples = 1524\nvalue = [1246, 278]"] ;
3 -> 317 ;
318 [label="X[2] <= -0.2405\ngini = 0.1906\nsamples = 778\nvalue = [695, 83]"] ;
317 -> 318 ;
319 [label="X[2] <= -0.3315\ngini = 0.2358\nsamples = 454\nvalue = [392, 62]"] ;
318 -> 319 ;
320 [label="X[302] <= 10.4629\ngini = 0.1351\nsamples = 151\nvalue = [140, 11]"] ;
319 -> 320 ;
321 [label="X[276] <= 23.4598\ngini = 0.1244\nsamples = 150\nvalue = [140, 10]"] ;
320 -> 321 ;
322 [label="X[44] <= 19.5138\ngini = 0.1135\nsamples = 149\nvalue = [140, 9]"] ;
321 -> 322 ;
323 [label="X[74] <= 18.8025\ngini = 0.1023\nsamples = 148\nvalue = [140, 8]"] ;
322 -> 323 ;
324 [label="X[0] <= -1.2872\ngini = 0.0907\nsamples = 147\nvalue = [140, 7]"] ;
323 -> 324 ;
325 [label="X[3] <= -0.8137\ngini = 0.3599\nsamples = 17\nvalue = [13, 4]"] ;
324 -> 325 ;
326 [label="X[153] <= 2.7406\ngini = 0.142\nsamples = 13\nvalue = [12, 1]"] ;
325 -> 326 ;
327 [label="gini = 0.0\nsamples = 11\nvalue = [11, 0]"] ;
326 -> 327 ;
328 [label="X[3] <= -1.0553\ngini = 0.5\nsamples = 2\nvalue = [1, 1]"] ;
326 -> 328 ;
329 [label="gini = 0.0\nsamples = 1\nvalue = [1, 0]"] ;
328 -> 329 ;
330 [label="gini = 0.0\nsamples = 1\nvalue = [0, 1]"] ;
328 -> 330 ;
331 [label="X[1] <= -0.9695\ngini = 0.375\nsamples = 4\nvalue = [1, 3]"] ;
325 -> 331 ;
332 [label="gini = 0.0\nsamples = 1\nvalue = [1, 0]"] ;
331 -> 332 ;
333 [label="gini = 0.0\nsamples = 3\nvalue = [0, 3]"] ;
331 -> 333 ;
334 [label="X[64] <= 3.7855\ngini = 0.0451\nsamples = 130\nvalue = [127, 3]"] ;
324 -> 334 ;
335 [label="X[233] <= 4.3248\ngini = 0.031\nsamples = 127\nvalue = [125, 2]"] ;
334 -> 335 ;
336 [label="X[154] <= 1.741\ngini = 0.0161\nsamples = 123\nvalue = [122, 1]"] ;
335 -> 336 ;
337 [label="gini = 0.0\nsamples = 118\nvalue = [118, 0]"] ;
336 -> 337 ;
338 [label="X[5] <= -1.1502\ngini = 0.32\nsamples = 5\nvalue = [4, 1]"] ;
336 -> 338 ;
339 [label="gini = 0.0\nsamples = 1\nvalue = [0, 1]"] ;
338 -> 339 ;
340 [label="gini = 0.0\nsamples = 4\nvalue = [4, 0]"] ;
338 -> 340 ;
341 [label="X[5] <= -0.2064\ngini = 0.375\nsamples = 4\nvalue = [3, 1]"] ;
335 -> 341 ;
342 [label="gini = 0.0\nsamples = 3\nvalue = [3, 0]"] ;
341 -> 342 ;
343 [label="gini = 0.0\nsamples = 1\nvalue = [0, 1]"] ;
341 -> 343 ;
344 [label="X[0] <= -0.405\ngini = 0.4444\nsamples = 3\nvalue = [2, 1]"] ;
334 -> 344 ;
345 [label="gini = 0.0\nsamples = 1\nvalue = [0, 1]"] ;
344 -> 345 ;
346 [label="gini = 0.0\nsamples = 2\nvalue = [2, 0]"] ;
344 -> 346 ;
347 [label="gini = 0.0\nsamples = 1\nvalue = [0, 1]"] ;
323 -> 347 ;
348 [label="gini = 0.0\nsamples = 1\nvalue = [0, 1]"] ;
322 -> 348 ;
349 [label="gini = 0.0\nsamples = 1\nvalue = [0, 1]"] ;
321 -> 349 ;
350 [label="gini = 0.0\nsamples = 1\nvalue = [0, 1]"] ;
320 -> 350 ;
351 [label="X[253] <= 4.8423\ngini = 0.28\nsamples = 303\nvalue = [252, 51]"] ;
319 -> 351 ;
352 [label="X[23] <= 4.2986\ngini = 0.2688\nsamples = 300\nvalue = [252, 48]"] ;
351 -> 352 ;
353 [label="X[51] <= 7.3731\ngini = 0.2611\nsamples = 298\nvalue = [252, 46]"] ;
352 -> 353 ;
354 [label="X[187] <= 5.8465\ngini = 0.2531\nsamples = 296\nvalue = [252, 44]"] ;
353 -> 354 ;
355 [label="X[240] <= 14.6596\ngini = 0.249\nsamples = 295\nvalue = [252, 43]"] ;
354 -> 355 ;
356 [label="X[124] <= 10.4629\ngini = 0.2449\nsamples = 294\nvalue = [252, 42]"] ;
355 -> 356 ;
357 [label="X[220] <= 12.2292\ngini = 0.2407\nsamples = 293\nvalue = [252, 41]"] ;
356 -> 357 ;
358 [label="X[140] <= 16.5773\ngini = 0.2364\nsamples = 292\nvalue = [252, 40]"] ;
357 -> 358 ;
359 [label="X[288] <= 13.0493\ngini = 0.2321\nsamples = 291\nvalue = [252, 39]"] ;
358 -> 359 ;
360 [label="X[264] <= 7.6354\ngini = 0.2277\nsamples = 290\nvalue = [252, 38]"] ;
359 -> 360 ;
361 [label="X[295] <= 7.1737\ngini = 0.2233\nsamples = 289\nvalue = [252, 37]"] ;
360 -> 361 ;
362 [label="X[308] <= 24.8847\ngini = 0.2188\nsamples = 288\nvalue = [252, 36]"] ;
361 -> 362 ;
363 [label="X[135] <= 31.4841\ngini = 0.2142\nsamples = 287\nvalue = [252, 35]"] ;
362 -> 363 ;
364 [label="X[203] <= 26.6049\ngini = 0.2095\nsamples = 286\nvalue = [252, 34]"] ;
363 -> 364 ;
365 [label="X[4] <= 0.2282\ngini = 0.2048\nsamples = 285\nvalue = [252, 33]"] ;
364 -> 365 ;
366 [label="X[160] <= 5.431\ngini = 0.1893\nsamples = 274\nvalue = [245, 29]"] ;
365 -> 366 ;
367 [label="X[63] <= 2.9322\ngini = 0.1841\nsamples = 273\nvalue = [245, 28]"] ;
366 -> 367 ;
368 [label="X[2] <= -0.3237\ngini = 0.1746\nsamples = 269\nvalue = [243, 26]"] ;
367 -> 368 ;
369 [label="X[3] <= -0.5107\ngini = 0.3599\nsamples = 34\nvalue = [26, 8]"] ;
368 -> 369 ;
370 [label="X[243] <= 3.2767\ngini = 0.3122\nsamples = 31\nvalue = [25, 6]"] ;
369 -> 370 ;
371 [label="X[28] <= 9.6351\ngini = 0.2778\nsamples = 30\nvalue = [25, 5]"] ;
370 -> 371 ;
372 [label="X[24] <= 10.8326\ngini = 0.2378\nsamples = 29\nvalue = [25, 4]"] ;
371 -> 372 ;
373 [label="X[258] <= 4.4924\ngini = 0.1913\nsamples = 28\nvalue = [25, 3]"] ;
372 -> 373 ;
374 [label="X[18] <= 2.6869\ngini = 0.1372\nsamples = 27\nvalue = [25, 2]"] ;
373 -> 374 ;
375 [label="X[242] <= 2.9085\ngini = 0.0768\nsamples = 25\nvalue = [24, 1]"] ;
374 -> 375 ;
376 [label="gini = 0.0\nsamples = 23\nvalue = [23, 0]"] ;
375 -> 376 ;
377 [label="X[4] <= -0.6536\ngini = 0.5\nsamples = 2\nvalue = [1, 1]"] ;
375 -> 377 ;
378 [label="gini = 0.0\nsamples = 1\nvalue = [0, 1]"] ;
377 -> 378 ;
379 [label="gini = 0.0\nsamples = 1\nvalue = [1, 0]"] ;
377 -> 379 ;
380 [label="X[3] <= -0.9455\ngini = 0.5\nsamples = 2\nvalue = [1, 1]"] ;
374 -> 380 ;
381 [label="gini = 0.0\nsamples = 1\nvalue = [1, 0]"] ;
380 -> 381 ;
382 [label="gini = 0.0\nsamples = 1\nvalue = [0, 1]"] ;
380 -> 382 ;
383 [label="gini = 0.0\nsamples = 1\nvalue = [0, 1]"] ;
373 -> 383 ;
384 [label="gini = 0.0\nsamples = 1\nvalue = [0, 1]"] ;
372 -> 384 ;
385 [label="gini = 0.0\nsamples = 1\nvalue = [0, 1]"] ;
371 -> 385 ;
386 [label="gini = 0.0\nsamples = 1\nvalue = [0, 1]"] ;
370 -> 386 ;
387 [label="X[5] <= -0.6898\ngini = 0.4444\nsamples = 3\nvalue = [1, 2]"] ;
369 -> 387 ;
388 [label="gini = 0.0\nsamples = 1\nvalue = [1, 0]"] ;
387 -> 388 ;
389 [label="gini = 0.0\nsamples = 2\nvalue = [0, 2]"] ;
387 -> 389 ;
390 [label="X[1] <= -0.9695\ngini = 0.1415\nsamples = 235\nvalue = [217, 18]"] ;
368 -> 390 ;
391 [label="X[4] <= -0.6537\ngini = 0.48\nsamples = 5\nvalue = [3, 2]"] ;
390 -> 391 ;
392 [label="gini = 0.0\nsamples = 2\nvalue = [0, 2]"] ;
391 -> 392 ;
393 [label="gini = 0.0\nsamples = 3\nvalue = [3, 0]"] ;
391 -> 393 ;
394 [label="X[152] <= 8.2547\ngini = 0.1295\nsamples = 230\nvalue = [214, 16]"] ;
390 -> 394 ;
395 [label="X[22] <= 5.7044\ngini = 0.1229\nsamples = 228\nvalue = [213, 15]"] ;
394 -> 395 ;
396 [label="X[5] <= -0.3215\ngini = 0.1162\nsamples = 226\nvalue = [212, 14]"] ;
395 -> 396 ;
397 [label="X[6] <= -0.7345\ngini = 0.0836\nsamples = 183\nvalue = [175, 8]"] ;
396 -> 397 ;
398 [label="X[18] <= 2.6869\ngini = 0.0177\nsamples = 112\nvalue = [111, 1]"] ;
397 -> 398 ;
399 [label="gini = 0.0\nsamples = 108\nvalue = [108, 0]"] ;
398 -> 399 ;
400 [label="X[2] <= -0.2899\ngini = 0.375\nsamples = 4\nvalue = [3, 1]"] ;
398 -> 400 ;
401 [label="gini = 0.0\nsamples = 2\nvalue = [2, 0]"] ;
400 -> 401 ;
402 [label="X[5] <= -0.6898\ngini = 0.5\nsamples = 2\nvalue = [1, 1]"] ;
400 -> 402 ;
403 [label="gini = 0.0\nsamples = 1\nvalue = [0, 1]"] ;
402 -> 403 ;
404 [label="gini = 0.0\nsamples = 1\nvalue = [1, 0]"] ;
402 -> 404 ;
405 [label="X[6] <= -0.7309\ngini = 0.1777\nsamples = 71\nvalue = [64, 7]"] ;
397 -> 405 ;
406 [label="gini = 0.0\nsamples = 1\nvalue = [0, 1]"] ;
405 -> 406 ;
407 [label="X[1] <= 3.6994\ngini = 0.1567\nsamples = 70\nvalue = [64, 6]"] ;
405 -> 407 ;
408 [label="X[188] <= 5.4141\ngini = 0.1362\nsamples = 68\nvalue = [63, 5]"] ;
407 -> 408 ;
409 [label="X[1] <= 0.1977\ngini = 0.1139\nsamples = 66\nvalue = [62, 4]"] ;
408 -> 409 ;
410 [label="X[64] <= 3.7855\ngini = 0.213\nsamples = 33\nvalue = [29, 4]"] ;
409 -> 410 ;
411 [label="X[154] <= 1.741\ngini = 0.1699\nsamples = 32\nvalue = [29, 3]"] ;
410 -> 411 ;
412 [label="X[2] <= -0.2535\ngini = 0.1244\nsamples = 30\nvalue = [28, 2]"] ;
411 -> 412 ;
413 [label="X[6] <= -0.714\ngini = 0.0689\nsamples = 28\nvalue = [27, 1]"] ;
412 -> 413 ;
414 [label="X[6] <= -0.7178\ngini = 0.4444\nsamples = 3\nvalue = [2, 1]"] ;
413 -> 414 ;
415 [label="gini = 0.0\nsamples = 2\nvalue = [2, 0]"] ;
414 -> 415 ;
416 [label="gini = 0.0\nsamples = 1\nvalue = [0, 1]"] ;
414 -> 416 ;
417 [label="gini = 0.0\nsamples = 25\nvalue = [25, 0]"] ;
413 -> 417 ;
418 [label="X[242] <= 2.9085\ngini = 0.5\nsamples = 2\nvalue = [1, 1]"] ;
412 -> 418 ;
419 [label="gini = 0.0\nsamples = 1\nvalue = [1, 0]"] ;
418 -> 419 ;
420 [label="gini = 0.0\nsamples = 1\nvalue = [0, 1]"] ;
418 -> 420 ;
421 [label="X[0] <= -0.0721\ngini = 0.5\nsamples = 2\nvalue = [1, 1]"] ;
411 -> 421 ;
422 [label="gini = 0.0\nsamples = 1\nvalue = [1, 0]"] ;
421 -> 422 ;
423 [label="gini = 0.0\nsamples = 1\nvalue = [0, 1]"] ;
421 -> 423 ;
424 [label="gini = 0.0\nsamples = 1\nvalue = [0, 1]"] ;
410 -> 424 ;
425 [label="gini = 0.0\nsamples = 33\nvalue = [33, 0]"] ;
409 -> 425 ;
426 [label="X[2] <= -0.2782\ngini = 0.5\nsamples = 2\nvalue = [1, 1]"] ;
408 -> 426 ;
427 [label="gini = 0.0\nsamples = 1\nvalue = [0, 1]"] ;
426 -> 427 ;
428 [label="gini = 0.0\nsamples = 1\nvalue = [1, 0]"] ;
426 -> 428 ;
429 [label="X[148] <= 2.4586\ngini = 0.5\nsamples = 2\nvalue = [1, 1]"] ;
407 -> 429 ;
430 [label="gini = 0.0\nsamples = 1\nvalue = [0, 1]"] ;
429 -> 430 ;
431 [label="gini = 0.0\nsamples = 1\nvalue = [1, 0]"] ;
429 -> 431 ;
432 [label="X[6] <= -0.8198\ngini = 0.2401\nsamples = 43\nvalue = [37, 6]"] ;
396 -> 432 ;
433 [label="gini = 0.0\nsamples = 2\nvalue = [0, 2]"] ;
432 -> 433 ;
434 [label="X[153] <= 2.7406\ngini = 0.1761\nsamples = 41\nvalue = [37, 4]"] ;
432 -> 434 ;
435 [label="X[4] <= -0.5932\ngini = 0.1023\nsamples = 37\nvalue = [35, 2]"] ;
434 -> 435 ;
436 [label="X[185] <= 3.5429\ngini = 0.5\nsamples = 2\nvalue = [1, 1]"] ;
435 -> 436 ;
437 [label="gini = 0.0\nsamples = 1\nvalue = [1, 0]"] ;
436 -> 437 ;
438 [label="gini = 0.0\nsamples = 1\nvalue = [0, 1]"] ;
436 -> 438 ;
439 [label="X[0] <= -1.0098\ngini = 0.0555\nsamples = 35\nvalue = [34, 1]"] ;
435 -> 439 ;
440 [label="X[5] <= -0.2524\ngini = 0.375\nsamples = 4\nvalue = [3, 1]"] ;
439 -> 440 ;
441 [label="gini = 0.0\nsamples = 1\nvalue = [0, 1]"] ;
440 -> 441 ;
442 [label="gini = 0.0\nsamples = 3\nvalue = [3, 0]"] ;
440 -> 442 ;
443 [label="gini = 0.0\nsamples = 31\nvalue = [31, 0]"] ;
439 -> 443 ;
444 [label="X[4] <= -0.3267\ngini = 0.5\nsamples = 4\nvalue = [2, 2]"] ;
434 -> 444 ;
445 [label="gini = 0.0\nsamples = 2\nvalue = [0, 2]"] ;
444 -> 445 ;
446 [label="gini = 0.0\nsamples = 2\nvalue = [2, 0]"] ;
444 -> 446 ;
447 [label="X[4] <= -0.4144\ngini = 0.5\nsamples = 2\nvalue = [1, 1]"] ;
395 -> 447 ;
448 [label="gini = 0.0\nsamples = 1\nvalue = [0, 1]"] ;
447 -> 448 ;
449 [label="gini = 0.0\nsamples = 1\nvalue = [1, 0]"] ;
447 -> 449 ;
450 [label="X[5] <= -0.897\ngini = 0.5\nsamples = 2\nvalue = [1, 1]"] ;
394 -> 450 ;
451 [label="gini = 0.0\nsamples = 1\nvalue = [0, 1]"] ;
450 -> 451 ;
452 [label="gini = 0.0\nsamples = 1\nvalue = [1, 0]"] ;
450 -> 452 ;
453 [label="X[2] <= -0.299\ngini = 0.5\nsamples = 4\nvalue = [2, 2]"] ;
367 -> 453 ;
454 [label="gini = 0.0\nsamples = 2\nvalue = [2, 0]"] ;
453 -> 454 ;
455 [label="gini = 0.0\nsamples = 2\nvalue = [0, 2]"] ;
453 -> 455 ;
456 [label="gini = 0.0\nsamples = 1\nvalue = [0, 1]"] ;
366 -> 456 ;
457 [label="X[0] <= 0.0277\ngini = 0.4628\nsamples = 11\nvalue = [7, 4]"] ;
365 -> 457 ;
458 [label="gini = 0.0\nsamples = 3\nvalue = [0, 3]"] ;
457 -> 458 ;
459 [label="X[315] <= 9.0508\ngini = 0.2188\nsamples = 8\nvalue = [7, 1]"] ;
457 -> 459 ;
460 [label="gini = 0.0\nsamples = 7\nvalue = [7, 0]"] ;
459 -> 460 ;
461 [label="gini = 0.0\nsamples = 1\nvalue = [0, 1]"] ;
459 -> 461 ;
462 [label="gini = 0.0\nsamples = 1\nvalue = [0, 1]"] ;
364 -> 462 ;
463 [label="gini = 0.0\nsamples = 1\nvalue = [0, 1]"] ;
363 -> 463 ;
464 [label="gini = 0.0\nsamples = 1\nvalue = [0, 1]"] ;
362 -> 464 ;
465 [label="gini = 0.0\nsamples = 1\nvalue = [0, 1]"] ;
361 -> 465 ;
466 [label="gini = 0.0\nsamples = 1\nvalue = [0, 1]"] ;
360 -> 466 ;
467 [label="gini = 0.0\nsamples = 1\nvalue = [0, 1]"] ;
359 -> 467 ;
468 [label="gini = 0.0\nsamples = 1\nvalue = [0, 1]"] ;
358 -> 468 ;
469 [label="gini = 0.0\nsamples = 1\nvalue = [0, 1]"] ;
357 -> 469 ;
470 [label="gini = 0.0\nsamples = 1\nvalue = [0, 1]"] ;
356 -> 470 ;
471 [label="gini = 0.0\nsamples = 1\nvalue = [0, 1]"] ;
355 -> 471 ;
472 [label="gini = 0.0\nsamples = 1\nvalue = [0, 1]"] ;
354 -> 472 ;
473 [label="gini = 0.0\nsamples = 2\nvalue = [0, 2]"] ;
353 -> 473 ;
474 [label="gini = 0.0\nsamples = 2\nvalue = [0, 2]"] ;
352 -> 474 ;
475 [label="gini = 0.0\nsamples = 3\nvalue = [0, 3]"] ;
351 -> 475 ;
476 [label="X[190] <= 5.348\ngini = 0.1212\nsamples = 324\nvalue = [303, 21]"] ;
318 -> 476 ;
477 [label="X[32] <= 6.5101\ngini = 0.1162\nsamples = 323\nvalue = [303, 20]"] ;
476 -> 477 ;
478 [label="X[49] <= 13.7848\ngini = 0.111\nsamples = 322\nvalue = [303, 19]"] ;
477 -> 478 ;
479 [label="X[37] <= 7.8263\ngini = 0.1059\nsamples = 321\nvalue = [303, 18]"] ;
478 -> 479 ;
480 [label="X[5] <= -1.3344\ngini = 0.0959\nsamples = 317\nvalue = [301, 16]"] ;
479 -> 480 ;
481 [label="X[2] <= -0.1482\ngini = 0.5\nsamples = 2\nvalue = [1, 1]"] ;
480 -> 481 ;
482 [label="gini = 0.0\nsamples = 1\nvalue = [1, 0]"] ;
481 -> 482 ;
483 [label="gini = 0.0\nsamples = 1\nvalue = [0, 1]"] ;
481 -> 483 ;
484 [label="X[280] <= 6.7214\ngini = 0.0907\nsamples = 315\nvalue = [300, 15]"] ;
480 -> 484 ;
485 [label="X[151] <= 2.47\ngini = 0.0855\nsamples = 313\nvalue = [299, 14]"] ;
484 -> 485 ;
486 [label="X[4] <= 0.0853\ngini = 0.0709\nsamples = 299\nvalue = [288, 11]"] ;
485 -> 486 ;
487 [label="X[265] <= 6.4533\ngini = 0.0324\nsamples = 243\nvalue = [239, 4]"] ;
486 -> 487 ;
488 [label="X[274] <= 4.19\ngini = 0.0247\nsamples = 240\nvalue = [237, 3]"] ;
487 -> 488 ;
489 [label="X[150] <= 2.2806\ngini = 0.0168\nsamples = 236\nvalue = [234, 2]"] ;
488 -> 489 ;
490 [label="X[211] <= 2.8738\ngini = 0.0087\nsamples = 229\nvalue = [228, 1]"] ;
489 -> 490 ;
491 [label="gini = 0.0\nsamples = 220\nvalue = [220, 0]"] ;
490 -> 491 ;
492 [label="X[3] <= -0.638\ngini = 0.1975\nsamples = 9\nvalue = [8, 1]"] ;
490 -> 492 ;
493 [label="X[4] <= -0.5355\ngini = 0.4444\nsamples = 3\nvalue = [2, 1]"] ;
492 -> 493 ;
494 [label="gini = 0.0\nsamples = 2\nvalue = [2, 0]"] ;
493 -> 494 ;
495 [label="gini = 0.0\nsamples = 1\nvalue = [0, 1]"] ;
493 -> 495 ;
496 [label="gini = 0.0\nsamples = 6\nvalue = [6, 0]"] ;
492 -> 496 ;
497 [label="X[5] <= -0.9661\ngini = 0.2449\nsamples = 7\nvalue = [6, 1]"] ;
489 -> 497 ;
498 [label="X[5] <= -1.1272\ngini = 0.5\nsamples = 2\nvalue = [1, 1]"] ;
497 -> 498 ;
499 [label="gini = 0.0\nsamples = 1\nvalue = [1, 0]"] ;
498 -> 499 ;
500 [label="gini = 0.0\nsamples = 1\nvalue = [0, 1]"] ;
498 -> 500 ;
501 [label="gini = 0.0\nsamples = 5\nvalue = [5, 0]"] ;
497 -> 501 ;
502 [label="X[0] <= -0.8988\ngini = 0.375\nsamples = 4\nvalue = [3, 1]"] ;
488 -> 502 ;
503 [label="gini = 0.0\nsamples = 1\nvalue = [0, 1]"] ;
502 -> 503 ;
504 [label="gini = 0.0\nsamples = 3\nvalue = [3, 0]"] ;
502 -> 504 ;
505 [label="X[0] <= 1.032\ngini = 0.4444\nsamples = 3\nvalue = [2, 1]"] ;
487 -> 505 ;
506 [label="gini = 0.0\nsamples = 2\nvalue = [2, 0]"] ;
505 -> 506 ;
507 [label="gini = 0.0\nsamples = 1\nvalue = [0, 1]"] ;
505 -> 507 ;
508 [label="X[4] <= 0.1007\ngini = 0.2188\nsamples = 56\nvalue = [49, 7]"] ;
486 -> 508 ;
509 [label="X[1] <= 1.0731\ngini = 0.4444\nsamples = 3\nvalue = [1, 2]"] ;
508 -> 509 ;
510 [label="gini = 0.0\nsamples = 2\nvalue = [0, 2]"] ;
509 -> 510 ;
511 [label="gini = 0.0\nsamples = 1\nvalue = [1, 0]"] ;
509 -> 511 ;
512 [label="X[28] <= 9.6351\ngini = 0.1709\nsamples = 53\nvalue = [48, 5]"] ;
508 -> 512 ;
513 [label="X[216] <= 6.3172\ngini = 0.142\nsamples = 52\nvalue = [48, 4]"] ;
512 -> 513 ;
514 [label="X[3] <= 0.0031\ngini = 0.1107\nsamples = 51\nvalue = [48, 3]"] ;
513 -> 514 ;
515 [label="X[4] <= 0.2855\ngini = 0.32\nsamples = 15\nvalue = [12, 3]"] ;
514 -> 515 ;
516 [label="gini = 0.0\nsamples = 9\nvalue = [9, 0]"] ;
515 -> 516 ;
517 [label="X[4] <= 0.4829\ngini = 0.5\nsamples = 6\nvalue = [3, 3]"] ;
515 -> 517 ;
518 [label="gini = 0.0\nsamples = 2\nvalue = [0, 2]"] ;
517 -> 518 ;
519 [label="X[211] <= 2.8738\ngini = 0.375\nsamples = 4\nvalue = [3, 1]"] ;
517 -> 519 ;
520 [label="gini = 0.0\nsamples = 3\nvalue = [3, 0]"] ;
519 -> 520 ;
521 [label="gini = 0.0\nsamples = 1\nvalue = [0, 1]"] ;
519 -> 521 ;
522 [label="gini = 0.0\nsamples = 36\nvalue = [36, 0]"] ;
514 -> 522 ;
523 [label="gini = 0.0\nsamples = 1\nvalue = [0, 1]"] ;
513 -> 523 ;
524 [label="gini = 0.0\nsamples = 1\nvalue = [0, 1]"] ;
512 -> 524 ;
525 [label="X[5] <= -0.7359\ngini = 0.3367\nsamples = 14\nvalue = [11, 3]"] ;
485 -> 525 ;
526 [label="X[1] <= 0.1977\ngini = 0.375\nsamples = 4\nvalue = [1, 3]"] ;
525 -> 526 ;
527 [label="gini = 0.0\nsamples = 1\nvalue = [1, 0]"] ;
526 -> 527 ;
528 [label="gini = 0.0\nsamples = 3\nvalue = [0, 3]"] ;
526 -> 528 ;
529 [label="gini = 0.0\nsamples = 10\nvalue = [10, 0]"] ;
525 -> 529 ;
530 [label="X[0] <= 0.6935\ngini = 0.5\nsamples = 2\nvalue = [1, 1]"] ;
484 -> 530 ;
531 [label="gini = 0.0\nsamples = 1\nvalue = [0, 1]"] ;
530 -> 531 ;
532 [label="gini = 0.0\nsamples = 1\nvalue = [1, 0]"] ;
530 -> 532 ;
533 [label="X[4] <= -0.4981\ngini = 0.5\nsamples = 4\nvalue = [2, 2]"] ;
479 -> 533 ;
534 [label="gini = 0.0\nsamples = 2\nvalue = [2, 0]"] ;
533 -> 534 ;
535 [label="gini = 0.0\nsamples = 2\nvalue = [0, 2]"] ;
533 -> 535 ;
536 [label="gini = 0.0\nsamples = 1\nvalue = [0, 1]"] ;
478 -> 536 ;
537 [label="gini = 0.0\nsamples = 1\nvalue = [0, 1]"] ;
477 -> 537 ;
538 [label="gini = 0.0\nsamples = 1\nvalue = [0, 1]"] ;
476 -> 538 ;
539 [label="X[6] <= 0.9103\ngini = 0.3861\nsamples = 746\nvalue = [551, 195]"] ;
317 -> 539 ;
540 [label="X[2] <= -0.3419\ngini = 0.3462\nsamples = 476\nvalue = [370, 106]"] ;
539 -> 540 ;
541 [label="X[1] <= 0.1977\ngini = 0.4953\nsamples = 31\nvalue = [17, 14]"] ;
540 -> 541 ;
542 [label="X[4] <= -0.6544\ngini = 0.4339\nsamples = 22\nvalue = [15, 7]"] ;
541 -> 542 ;
543 [label="gini = 0.0\nsamples = 5\nvalue = [5, 0]"] ;
542 -> 543 ;
544 [label="X[4] <= -0.637\ngini = 0.4844\nsamples = 17\nvalue = [10, 7]"] ;
542 -> 544 ;
545 [label="gini = 0.0\nsamples = 3\nvalue = [0, 3]"] ;
544 -> 545 ;
546 [label="X[2] <= -0.3484\ngini = 0.4082\nsamples = 14\nvalue = [10, 4]"] ;
544 -> 546 ;
547 [label="X[158] <= 9.9222\ngini = 0.2975\nsamples = 11\nvalue = [9, 2]"] ;
546 -> 547 ;
548 [label="X[242] <= 2.9085\ngini = 0.18\nsamples = 10\nvalue = [9, 1]"] ;
547 -> 548 ;
549 [label="gini = 0.0\nsamples = 9\nvalue = [9, 0]"] ;
548 -> 549 ;
550 [label="gini = 0.0\nsamples = 1\nvalue = [0, 1]"] ;
548 -> 550 ;
551 [label="gini = 0.0\nsamples = 1\nvalue = [0, 1]"] ;
547 -> 551 ;
552 [label="X[2] <= -0.3445\ngini = 0.4444\nsamples = 3\nvalue = [1, 2]"] ;
546 -> 552 ;
553 [label="gini = 0.0\nsamples = 2\nvalue = [0, 2]"] ;
552 -> 553 ;
554 [label="gini = 0.0\nsamples = 1\nvalue = [1, 0]"] ;
552 -> 554 ;
555 [label="X[0] <= 0.5326\ngini = 0.3457\nsamples = 9\nvalue = [2, 7]"] ;
541 -> 555 ;
556 [label="gini = 0.0\nsamples = 6\nvalue = [0, 6]"] ;
555 -> 556 ;
557 [label="X[5] <= -0.8049\ngini = 0.4444\nsamples = 3\nvalue = [2, 1]"] ;
555 -> 557 ;
558 [label="gini = 0.0\nsamples = 1\nvalue = [0, 1]"] ;
557 -> 558 ;
559 [label="gini = 0.0\nsamples = 2\nvalue = [2, 0]"] ;
557 -> 559 ;
560 [label="X[1] <= 5.4502\ngini = 0.328\nsamples = 445\nvalue = [353, 92]"] ;
540 -> 560 ;
561 [label="X[148] <= 2.4586\ngini = 0.3184\nsamples = 438\nvalue = [351, 87]"] ;
560 -> 561 ;
562 [label="X[0] <= 2.0196\ngini = 0.3054\nsamples = 420\nvalue = [341, 79]"] ;
561 -> 562 ;
563 [label="X[5] <= 3.592\ngini = 0.3231\nsamples = 390\nvalue = [311, 79]"] ;
562 -> 563 ;
564 [label="X[4] <= 0.5819\ngini = 0.3181\nsamples = 388\nvalue = [311, 77]"] ;
563 -> 564 ;
565 [label="X[4] <= 0.4952\ngini = 0.3434\nsamples = 327\nvalue = [255, 72]"] ;
564 -> 565 ;
566 [label="X[3] <= 0.2798\ngini = 0.3318\nsamples = 319\nvalue = [252, 67]"] ;
565 -> 566 ;
567 [label="X[5] <= 1.4511\ngini = 0.3007\nsamples = 255\nvalue = [208, 47]"] ;
566 -> 567 ;
568 [label="X[39] <= 13.7848\ngini = 0.2934\nsamples = 252\nvalue = [207, 45]"] ;
567 -> 568 ;
569 [label="X[246] <= 17.5855\ngini = 0.2891\nsamples = 251\nvalue = [207, 44]"] ;
568 -> 569 ;
570 [label="X[315] <= 9.0508\ngini = 0.2848\nsamples = 250\nvalue = [207, 43]"] ;
569 -> 570 ;
571 [label="X[4] <= -0.3152\ngini = 0.2804\nsamples = 249\nvalue = [207, 42]"] ;
570 -> 571 ;
572 [label="X[5] <= 0.0929\ngini = 0.332\nsamples = 157\nvalue = [124, 33]"] ;
571 -> 572 ;
573 [label="X[64] <= 3.7855\ngini = 0.3621\nsamples = 139\nvalue = [106, 33]"] ;
572 -> 573 ;
574 [label="X[5] <= -0.1834\ngini = 0.3502\nsamples = 137\nvalue = [106, 31]"] ;
573 -> 574 ;
575 [label="X[4] <= -0.427\ngini = 0.3138\nsamples = 118\nvalue = [95, 23]"] ;
574 -> 575 ;
576 [label="X[188] <= 5.4141\ngini = 0.2427\nsamples = 92\nvalue = [79, 13]"] ;
575 -> 576 ;
577 [label="X[2] <= -0.3055\ngini = 0.229\nsamples = 91\nvalue = [79, 12]"] ;
576 -> 577 ;
578 [label="X[2] <= -0.3263\ngini = 0.4321\nsamples = 19\nvalue = [13, 6]"] ;
577 -> 578 ;
579 [label="X[4] <= -0.6774\ngini = 0.18\nsamples = 10\nvalue = [9, 1]"] ;
578 -> 579 ;
580 [label="gini = 0.0\nsamples = 1\nvalue = [0, 1]"] ;
579 -> 580 ;
581 [label="gini = 0.0\nsamples = 9\nvalue = [9, 0]"] ;
579 -> 581 ;
582 [label="X[0] <= 0.5326\ngini = 0.4938\nsamples = 9\nvalue = [4, 5]"] ;
578 -> 582 ;
583 [label="X[0] <= -0.0721\ngini = 0.4444\nsamples = 6\nvalue = [4, 2]"] ;
582 -> 583 ;
584 [label="X[6] <= -0.0234\ngini = 0.4444\nsamples = 3\nvalue = [1, 2]"] ;
583 -> 584 ;
585 [label="gini = 0.0\nsamples = 1\nvalue = [1, 0]"] ;
584 -> 585 ;
586 [label="gini = 0.0\nsamples = 2\nvalue = [0, 2]"] ;
584 -> 586 ;
587 [label="gini = 0.0\nsamples = 3\nvalue = [3, 0]"] ;
583 -> 587 ;
588 [label="gini = 0.0\nsamples = 3\nvalue = [0, 3]"] ;
582 -> 588 ;
589 [label="X[254] <= 5.889\ngini = 0.1528\nsamples = 72\nvalue = [66, 6]"] ;
577 -> 589 ;
590 [label="X[270] <= 10.582\ngini = 0.1309\nsamples = 71\nvalue = [66, 5]"] ;
589 -> 590 ;
591 [label="X[258] <= 4.4924\ngini = 0.1078\nsamples = 70\nvalue = [66, 4]"] ;
590 -> 591 ;
592 [label="X[206] <= 7.8263\ngini = 0.0843\nsamples = 68\nvalue = [65, 3]"] ;
591 -> 592 ;
593 [label="X[211] <= 2.8738\ngini = 0.0588\nsamples = 66\nvalue = [64, 2]"] ;
592 -> 593 ;
594 [label="X[4] <= -0.6881\ngini = 0.0312\nsamples = 63\nvalue = [62, 1]"] ;
593 -> 594 ;
595 [label="X[3] <= -0.9059\ngini = 0.32\nsamples = 5\nvalue = [4, 1]"] ;
594 -> 595 ;
596 [label="gini = 0.0\nsamples = 4\nvalue = [4, 0]"] ;
595 -> 596 ;
597 [label="gini = 0.0\nsamples = 1\nvalue = [0, 1]"] ;
595 -> 597 ;
598 [label="gini = 0.0\nsamples = 58\nvalue = [58, 0]"] ;
594 -> 598 ;
599 [label="X[1] <= 0.7813\ngini = 0.4444\nsamples = 3\nvalue = [2, 1]"] ;
593 -> 599 ;
600 [label="gini = 0.0\nsamples = 2\nvalue = [2, 0]"] ;
599 -> 600 ;
601 [label="gini = 0.0\nsamples = 1\nvalue = [0, 1]"] ;
599 -> 601 ;
602 [label="X[2] <= 0.6477\ngini = 0.5\nsamples = 2\nvalue = [1, 1]"] ;
592 -> 602 ;
603 [label="gini = 0.0\nsamples = 1\nvalue = [0, 1]"] ;
602 -> 603 ;
604 [label="gini = 0.0\nsamples = 1\nvalue = [1, 0]"] ;
602 -> 604 ;
605 [label="X[3] <= -0.4712\ngini = 0.5\nsamples = 2\nvalue = [1, 1]"] ;
591 -> 605 ;
606 [label="gini = 0.0\nsamples = 1\nvalue = [0, 1]"] ;
605 -> 606 ;
607 [label="gini = 0.0\nsamples = 1\nvalue = [1, 0]"] ;
605 -> 607 ;
608 [label="gini = 0.0\nsamples = 1\nvalue = [0, 1]"] ;
590 -> 608 ;
609 [label="gini = 0.0\nsamples = 1\nvalue = [0, 1]"] ;
589 -> 609 ;
610 [label="gini = 0.0\nsamples = 1\nvalue = [0, 1]"] ;
576 -> 610 ;
611 [label="X[5] <= -0.4596\ngini = 0.4734\nsamples = 26\nvalue = [16, 10]"] ;
575 -> 611 ;
612 [label="X[6] <= -0.2063\ngini = 0.4898\nsamples = 14\nvalue = [6, 8]"] ;
611 -> 612 ;
613 [label="gini = 0.0\nsamples = 2\nvalue = [2, 0]"] ;
612 -> 613 ;
614 [label="X[2] <= -0.1976\ngini = 0.4444\nsamples = 12\nvalue = [4, 8]"] ;
612 -> 614 ;
615 [label="X[3] <= -0.133\ngini = 0.2449\nsamples = 7\nvalue = [1, 6]"] ;
614 -> 615 ;
616 [label="gini = 0.0\nsamples = 6\nvalue = [0, 6]"] ;
615 -> 616 ;
617 [label="gini = 0.0\nsamples = 1\nvalue = [1, 0]"] ;
615 -> 617 ;
618 [label="X[3] <= -0.3702\ngini = 0.48\nsamples = 5\nvalue = [3, 2]"] ;
614 -> 618 ;
619 [label="gini = 0.0\nsamples = 3\nvalue = [3, 0]"] ;
618 -> 619 ;
620 [label="gini = 0.0\nsamples = 2\nvalue = [0, 2]"] ;
618 -> 620 ;
621 [label="X[151] <= 2.47\ngini = 0.2778\nsamples = 12\nvalue = [10, 2]"] ;
611 -> 621 ;
622 [label="X[149] <= 2.3913\ngini = 0.1653\nsamples = 11\nvalue = [10, 1]"] ;
621 -> 622 ;
623 [label="gini = 0.0\nsamples = 9\nvalue = [9, 0]"] ;
622 -> 623 ;
624 [label="X[4] <= -0.3405\ngini = 0.5\nsamples = 2\nvalue = [1, 1]"] ;
622 -> 624 ;
625 [label="gini = 0.0\nsamples = 1\nvalue = [0, 1]"] ;
624 -> 625 ;
626 [label="gini = 0.0\nsamples = 1\nvalue = [1, 0]"] ;
624 -> 626 ;
627 [label="gini = 0.0\nsamples = 1\nvalue = [0, 1]"] ;
621 -> 627 ;
628 [label="X[0] <= 0.4217\ngini = 0.4875\nsamples = 19\nvalue = [11, 8]"] ;
574 -> 628 ;
629 [label="X[6] <= -0.0485\ngini = 0.4898\nsamples = 14\nvalue = [6, 8]"] ;
628 -> 629 ;
630 [label="X[6] <= -0.2173\ngini = 0.4444\nsamples = 9\nvalue = [6, 3]"] ;
629 -> 630 ;
631 [label="X[122] <= 5.7044\ngini = 0.375\nsamples = 4\nvalue = [1, 3]"] ;
630 -> 631 ;
632 [label="gini = 0.0\nsamples = 3\nvalue = [0, 3]"] ;
631 -> 632 ;
633 [label="gini = 0.0\nsamples = 1\nvalue = [1, 0]"] ;
631 -> 633 ;
634 [label="gini = 0.0\nsamples = 5\nvalue = [5, 0]"] ;
630 -> 634 ;
635 [label="gini = 0.0\nsamples = 5\nvalue = [0, 5]"] ;
629 -> 635 ;
636 [label="gini = 0.0\nsamples = 5\nvalue = [5, 0]"] ;
628 -> 636 ;
637 [label="gini = 0.0\nsamples = 2\nvalue = [0, 2]"] ;
573 -> 637 ;
638 [label="gini = 0.0\nsamples = 18\nvalue = [18, 0]"] ;
572 -> 638 ;
639 [label="X[60] <= 26.6049\ngini = 0.1765\nsamples = 92\nvalue = [83, 9]"] ;
571 -> 639 ;
640 [label="X[129] <= 10.0237\ngini = 0.1604\nsamples = 91\nvalue = [83, 8]"] ;
639 -> 640 ;
641 [label="X[122] <= 5.7044\ngini = 0.1435\nsamples = 90\nvalue = [83, 7]"] ;
640 -> 641 ;
642 [label="X[2] <= -0.2613\ngini = 0.1257\nsamples = 89\nvalue = [83, 6]"] ;
641 -> 642 ;
643 [label="X[6] <= 0.3356\ngini = 0.3107\nsamples = 26\nvalue = [21, 5]"] ;
642 -> 643 ;
644 [label="X[2] <= -0.2964\ngini = 0.4444\nsamples = 15\nvalue = [10, 5]"] ;
643 -> 644 ;
645 [label="X[153] <= 2.7406\ngini = 0.18\nsamples = 10\nvalue = [9, 1]"] ;
644 -> 645 ;
646 [label="gini = 0.0\nsamples = 9\nvalue = [9, 0]"] ;
645 -> 646 ;
647 [label="gini = 0.0\nsamples = 1\nvalue = [0, 1]"] ;
645 -> 647 ;
648 [label="X[211] <= 2.8738\ngini = 0.32\nsamples = 5\nvalue = [1, 4]"] ;
644 -> 648 ;
649 [label="gini = 0.0\nsamples = 4\nvalue = [0, 4]"] ;
648 -> 649 ;
650 [label="gini = 0.0\nsamples = 1\nvalue = [1, 0]"] ;
648 -> 650 ;
651 [label="gini = 0.0\nsamples = 11\nvalue = [11, 0]"] ;
643 -> 651 ;
652 [label="X[36] <= 6.659\ngini = 0.0312\nsamples = 63\nvalue = [62, 1]"] ;
642 -> 652 ;
653 [label="gini = 0.0\nsamples = 61\nvalue = [61, 0]"] ;
652 -> 653 ;
654 [label="X[0] <= 1.1485\ngini = 0.5\nsamples = 2\nvalue = [1, 1]"] ;
652 -> 654 ;
655 [label="gini = 0.0\nsamples = 1\nvalue = [1, 0]"] ;
654 -> 655 ;
656 [label="gini = 0.0\nsamples = 1\nvalue = [0, 1]"] ;
654 -> 656 ;
657 [label="gini = 0.0\nsamples = 1\nvalue = [0, 1]"] ;
641 -> 657 ;
658 [label="gini = 0.0\nsamples = 1\nvalue = [0, 1]"] ;
640 -> 658 ;
659 [label="gini = 0.0\nsamples = 1\nvalue = [0, 1]"] ;
639 -> 659 ;
660 [label="gini = 0.0\nsamples = 1\nvalue = [0, 1]"] ;
570 -> 660 ;
661 [label="gini = 0.0\nsamples = 1\nvalue = [0, 1]"] ;
569 -> 661 ;
662 [label="gini = 0.0\nsamples = 1\nvalue = [0, 1]"] ;
568 -> 662 ;
663 [label="X[6] <= 0.3335\ngini = 0.4444\nsamples = 3\nvalue = [1, 2]"] ;
567 -> 663 ;
664 [label="gini = 0.0\nsamples = 2\nvalue = [0, 2]"] ;
663 -> 664 ;
665 [label="gini = 0.0\nsamples = 1\nvalue = [1, 0]"] ;
663 -> 665 ;
666 [label="X[2] <= -0.2366\ngini = 0.4297\nsamples = 64\nvalue = [44, 20]"] ;
566 -> 666 ;
667 [label="X[4] <= -0.0533\ngini = 0.4628\nsamples = 11\nvalue = [4, 7]"] ;
666 -> 667 ;
668 [label="gini = 0.0\nsamples = 5\nvalue = [0, 5]"] ;
667 -> 668 ;
669 [label="X[3] <= 0.394\ngini = 0.4444\nsamples = 6\nvalue = [4, 2]"] ;
667 -> 669 ;
670 [label="gini = 0.0\nsamples = 2\nvalue = [0, 2]"] ;
669 -> 670 ;
671 [label="gini = 0.0\nsamples = 4\nvalue = [4, 0]"] ;
669 -> 671 ;
672 [label="X[4] <= -0.2616\ngini = 0.3702\nsamples = 53\nvalue = [40, 13]"] ;
666 -> 672 ;
673 [label="gini = 0.0\nsamples = 11\nvalue = [11, 0]"] ;
672 -> 673 ;
674 [label="X[4] <= -0.1996\ngini = 0.4274\nsamples = 42\nvalue = [29, 13]"] ;
672 -> 674 ;
675 [label="gini = 0.0\nsamples = 4\nvalue = [0, 4]"] ;
674 -> 675 ;
676 [label="X[2] <= 0.5398\ngini = 0.3615\nsamples = 38\nvalue = [29, 9]"] ;
674 -> 676 ;
677 [label="X[160] <= 5.431\ngini = 0.2975\nsamples = 33\nvalue = [27, 6]"] ;
676 -> 677 ;
678 [label="X[158] <= 9.9222\ngini = 0.2637\nsamples = 32\nvalue = [27, 5]"] ;
677 -> 678 ;
679 [label="X[3] <= 2.1726\ngini = 0.2248\nsamples = 31\nvalue = [27, 4]"] ;
678 -> 679 ;
680 [label="X[230] <= 6.9894\ngini = 0.18\nsamples = 30\nvalue = [27, 3]"] ;
679 -> 680 ;
681 [label="X[0] <= -0.1775\ngini = 0.1284\nsamples = 29\nvalue = [27, 2]"] ;
680 -> 681 ;
682 [label="X[6] <= 0.329\ngini = 0.4444\nsamples = 6\nvalue = [4, 2]"] ;
681 -> 682 ;
683 [label="gini = 0.0\nsamples = 3\nvalue = [3, 0]"] ;
682 -> 683 ;
684 [label="X[4] <= -0.0938\ngini = 0.4444\nsamples = 3\nvalue = [1, 2]"] ;
682 -> 684 ;
685 [label="gini = 0.0\nsamples = 1\nvalue = [1, 0]"] ;
684 -> 685 ;
686 [label="gini = 0.0\nsamples = 2\nvalue = [0, 2]"] ;
684 -> 686 ;
687 [label="gini = 0.0\nsamples = 23\nvalue = [23, 0]"] ;
681 -> 687 ;
688 [label="gini = 0.0\nsamples = 1\nvalue = [0, 1]"] ;
680 -> 688 ;
689 [label="gini = 0.0\nsamples = 1\nvalue = [0, 1]"] ;
679 -> 689 ;
690 [label="gini = 0.0\nsamples = 1\nvalue = [0, 1]"] ;
678 -> 690 ;
691 [label="gini = 0.0\nsamples = 1\nvalue = [0, 1]"] ;
677 -> 691 ;
692 [label="X[6] <= 0.5518\ngini = 0.48\nsamples = 5\nvalue = [2, 3]"] ;
676 -> 692 ;
693 [label="X[3] <= 0.3589\ngini = 0.4444\nsamples = 3\nvalue = [2, 1]"] ;
692 -> 693 ;
694 [label="gini = 0.0\nsamples = 1\nvalue = [0, 1]"] ;
693 -> 694 ;
695 [label="gini = 0.0\nsamples = 2\nvalue = [2, 0]"] ;
693 -> 695 ;
696 [label="gini = 0.0\nsamples = 2\nvalue = [0, 2]"] ;
692 -> 696 ;
697 [label="X[0] <= 0.4161\ngini = 0.4688\nsamples = 8\nvalue = [3, 5]"] ;
565 -> 697 ;
698 [label="gini = 0.0\nsamples = 2\nvalue = [2, 0]"] ;
697 -> 698 ;
699 [label="X[63] <= 2.9322\ngini = 0.2778\nsamples = 6\nvalue = [1, 5]"] ;
697 -> 699 ;
700 [label="gini = 0.0\nsamples = 5\nvalue = [0, 5]"] ;
699 -> 700 ;
701 [label="gini = 0.0\nsamples = 1\nvalue = [1, 0]"] ;
699 -> 701 ;
702 [label="X[1] <= 3.1158\ngini = 0.1505\nsamples = 61\nvalue = [56, 5]"] ;
564 -> 702 ;
703 [label="X[2] <= -0.3276\ngini = 0.1244\nsamples = 60\nvalue = [56, 4]"] ;
702 -> 703 ;
704 [label="gini = 0.0\nsamples = 1\nvalue = [0, 1]"] ;
703 -> 704 ;
705 [label="X[187] <= 5.8465\ngini = 0.0965\nsamples = 59\nvalue = [56, 3]"] ;
703 -> 705 ;
706 [label="X[295] <= 7.1737\ngini = 0.0666\nsamples = 58\nvalue = [56, 2]"] ;
705 -> 706 ;
707 [label="X[160] <= 5.431\ngini = 0.0345\nsamples = 57\nvalue = [56, 1]"] ;
706 -> 707 ;
708 [label="gini = 0.0\nsamples = 56\nvalue = [56, 0]"] ;
707 -> 708 ;
709 [label="gini = 0.0\nsamples = 1\nvalue = [0, 1]"] ;
707 -> 709 ;
710 [label="gini = 0.0\nsamples = 1\nvalue = [0, 1]"] ;
706 -> 710 ;
711 [label="gini = 0.0\nsamples = 1\nvalue = [0, 1]"] ;
705 -> 711 ;
712 [label="gini = 0.0\nsamples = 1\nvalue = [0, 1]"] ;
702 -> 712 ;
713 [label="gini = 0.0\nsamples = 2\nvalue = [0, 2]"] ;
563 -> 713 ;
714 [label="gini = 0.0\nsamples = 30\nvalue = [30, 0]"] ;
562 -> 714 ;
715 [label="X[0] <= 0.4161\ngini = 0.4938\nsamples = 18\nvalue = [10, 8]"] ;
561 -> 715 ;
716 [label="X[6] <= 0.4975\ngini = 0.2449\nsamples = 7\nvalue = [1, 6]"] ;
715 -> 716 ;
717 [label="gini = 0.0\nsamples = 6\nvalue = [0, 6]"] ;
716 -> 717 ;
718 [label="gini = 0.0\nsamples = 1\nvalue = [1, 0]"] ;
716 -> 718 ;
719 [label="X[3] <= 0.3193\ngini = 0.2975\nsamples = 11\nvalue = [9, 2]"] ;
715 -> 719 ;
720 [label="gini = 0.0\nsamples = 8\nvalue = [8, 0]"] ;
719 -> 720 ;
721 [label="X[6] <= 0.7402\ngini = 0.4444\nsamples = 3\nvalue = [1, 2]"] ;
719 -> 721 ;
722 [label="gini = 0.0\nsamples = 2\nvalue = [0, 2]"] ;
721 -> 722 ;
723 [label="gini = 0.0\nsamples = 1\nvalue = [1, 0]"] ;
721 -> 723 ;
724 [label="X[2] <= 0.1106\ngini = 0.4082\nsamples = 7\nvalue = [2, 5]"] ;
560 -> 724 ;
725 [label="X[4] <= -0.2419\ngini = 0.4444\nsamples = 3\nvalue = [2, 1]"] ;
724 -> 725 ;
726 [label="gini = 0.0\nsamples = 1\nvalue = [0, 1]"] ;
725 -> 726 ;
727 [label="gini = 0.0\nsamples = 2\nvalue = [2, 0]"] ;
725 -> 727 ;
728 [label="gini = 0.0\nsamples = 4\nvalue = [0, 4]"] ;
724 -> 728 ;
729 [label="X[4] <= -0.4365\ngini = 0.4419\nsamples = 270\nvalue = [181, 89]"] ;
539 -> 729 ;
730 [label="X[6] <= 0.9692\ngini = 0.4967\nsamples = 74\nvalue = [40, 34]"] ;
729 -> 730 ;
731 [label="gini = 0.0\nsamples = 6\nvalue = [0, 6]"] ;
730 -> 731 ;
732 [label="X[4] <= -0.5383\ngini = 0.4844\nsamples = 68\nvalue = [40, 28]"] ;
730 -> 732 ;
733 [label="X[2] <= -0.3237\ngini = 0.4339\nsamples = 44\nvalue = [30, 14]"] ;
732 -> 733 ;
734 [label="X[1] <= 0.7813\ngini = 0.4688\nsamples = 8\nvalue = [3, 5]"] ;
733 -> 734 ;
735 [label="gini = 0.0\nsamples = 4\nvalue = [0, 4]"] ;
734 -> 735 ;
736 [label="X[245] <= 8.9756\ngini = 0.375\nsamples = 4\nvalue = [3, 1]"] ;
734 -> 736 ;
737 [label="gini = 0.0\nsamples = 3\nvalue = [3, 0]"] ;
736 -> 737 ;
738 [label="gini = 0.0\nsamples = 1\nvalue = [0, 1]"] ;
736 -> 738 ;
739 [label="X[6] <= 1.4787\ngini = 0.375\nsamples = 36\nvalue = [27, 9]"] ;
733 -> 739 ;
740 [label="X[264] <= 7.6354\ngini = 0.142\nsamples = 13\nvalue = [12, 1]"] ;
739 -> 740 ;
741 [label="gini = 0.0\nsamples = 12\nvalue = [12, 0]"] ;
740 -> 741 ;
742 [label="gini = 0.0\nsamples = 1\nvalue = [0, 1]"] ;
740 -> 742 ;
743 [label="X[6] <= 1.9062\ngini = 0.4537\nsamples = 23\nvalue = [15, 8]"] ;
739 -> 743 ;
744 [label="X[6] <= 1.7073\ngini = 0.4688\nsamples = 8\nvalue = [3, 5]"] ;
743 -> 744 ;
745 [label="X[3] <= -0.7259\ngini = 0.48\nsamples = 5\nvalue = [3, 2]"] ;
744 -> 745 ;
746 [label="gini = 0.0\nsamples = 2\nvalue = [0, 2]"] ;
745 -> 746 ;
747 [label="gini = 0.0\nsamples = 3\nvalue = [3, 0]"] ;
745 -> 747 ;
748 [label="gini = 0.0\nsamples = 3\nvalue = [0, 3]"] ;
744 -> 748 ;
749 [label="X[2] <= 0.4462\ngini = 0.32\nsamples = 15\nvalue = [12, 3]"] ;
743 -> 749 ;
750 [label="X[228] <= 5.5002\ngini = 0.1528\nsamples = 12\nvalue = [11, 1]"] ;
749 -> 750 ;
751 [label="gini = 0.0\nsamples = 11\nvalue = [11, 0]"] ;
750 -> 751 ;
752 [label="gini = 0.0\nsamples = 1\nvalue = [0, 1]"] ;
750 -> 752 ;
753 [label="X[3] <= -0.8005\ngini = 0.4444\nsamples = 3\nvalue = [1, 2]"] ;
749 -> 753 ;
754 [label="gini = 0.0\nsamples = 1\nvalue = [1, 0]"] ;
753 -> 754 ;
755 [label="gini = 0.0\nsamples = 2\nvalue = [0, 2]"] ;
753 -> 755 ;
756 [label="X[5] <= -0.4596\ngini = 0.4861\nsamples = 24\nvalue = [10, 14]"] ;
732 -> 756 ;
757 [label="X[0] <= 2.5744\ngini = 0.4628\nsamples = 11\nvalue = [7, 4]"] ;
756 -> 757 ;
758 [label="X[241] <= 16.1339\ngini = 0.3457\nsamples = 9\nvalue = [7, 2]"] ;
757 -> 758 ;
759 [label="X[151] <= 2.47\ngini = 0.2188\nsamples = 8\nvalue = [7, 1]"] ;
758 -> 759 ;
760 [label="gini = 0.0\nsamples = 7\nvalue = [7, 0]"] ;
759 -> 760 ;
761 [label="gini = 0.0\nsamples = 1\nvalue = [0, 1]"] ;
759 -> 761 ;
762 [label="gini = 0.0\nsamples = 1\nvalue = [0, 1]"] ;
758 -> 762 ;
763 [label="gini = 0.0\nsamples = 2\nvalue = [0, 2]"] ;
757 -> 763 ;
764 [label="X[2] <= 0.4202\ngini = 0.355\nsamples = 13\nvalue = [3, 10]"] ;
756 -> 764 ;
765 [label="X[211] <= 2.8738\ngini = 0.2778\nsamples = 12\nvalue = [2, 10]"] ;
764 -> 765 ;
766 [label="X[149] <= 2.3913\ngini = 0.1653\nsamples = 11\nvalue = [1, 10]"] ;
765 -> 766 ;
767 [label="gini = 0.0\nsamples = 10\nvalue = [0, 10]"] ;
766 -> 767 ;
768 [label="gini = 0.0\nsamples = 1\nvalue = [1, 0]"] ;
766 -> 768 ;
769 [label="gini = 0.0\nsamples = 1\nvalue = [1, 0]"] ;
765 -> 769 ;
770 [label="gini = 0.0\nsamples = 1\nvalue = [1, 0]"] ;
764 -> 770 ;
771 [label="X[5] <= -0.5517\ngini = 0.4037\nsamples = 196\nvalue = [141, 55]"] ;
729 -> 771 ;
772 [label="X[253] <= 4.8423\ngini = 0.0832\nsamples = 23\nvalue = [22, 1]"] ;
771 -> 772 ;
773 [label="gini = 0.0\nsamples = 22\nvalue = [22, 0]"] ;
772 -> 773 ;
774 [label="gini = 0.0\nsamples = 1\nvalue = [0, 1]"] ;
772 -> 774 ;
775 [label="X[4] <= 3.8166\ngini = 0.4294\nsamples = 173\nvalue = [119, 54]"] ;
771 -> 775 ;
776 [label="X[0] <= -0.8489\ngini = 0.4232\nsamples = 171\nvalue = [119, 52]"] ;
775 -> 776 ;
777 [label="gini = 0.0\nsamples = 2\nvalue = [0, 2]"] ;
776 -> 777 ;
778 [label="X[6] <= 1.8221\ngini = 0.4167\nsamples = 169\nvalue = [119, 50]"] ;
776 -> 778 ;
779 [label="X[3] <= 0.0778\ngini = 0.3604\nsamples = 106\nvalue = [81, 25]"] ;
778 -> 779 ;
780 [label="X[3] <= -0.0408\ngini = 0.4314\nsamples = 54\nvalue = [37, 17]"] ;
779 -> 780 ;
781 [label="X[4] <= -0.0155\ngini = 0.3457\nsamples = 45\nvalue = [35, 10]"] ;
780 -> 781 ;
782 [label="X[4] <= -0.0927\ngini = 0.4082\nsamples = 35\nvalue = [25, 10]"] ;
781 -> 782 ;
783 [label="X[2] <= 0.7518\ngini = 0.3418\nsamples = 32\nvalue = [25, 7]"] ;
782 -> 783 ;
784 [label="X[58] <= 7.1357\ngini = 0.2778\nsamples = 30\nvalue = [25, 5]"] ;
783 -> 784 ;
785 [label="X[234] <= 10.7051\ngini = 0.2378\nsamples = 29\nvalue = [25, 4]"] ;
784 -> 785 ;
786 [label="X[151] <= 2.47\ngini = 0.1913\nsamples = 28\nvalue = [25, 3]"] ;
785 -> 786 ;
787 [label="X[3] <= -0.1154\ngini = 0.142\nsamples = 26\nvalue = [24, 2]"] ;
786 -> 787 ;
788 [label="X[150] <= 2.2806\ngini = 0.0799\nsamples = 24\nvalue = [23, 1]"] ;
787 -> 788 ;
789 [label="gini = 0.0\nsamples = 20\nvalue = [20, 0]"] ;
788 -> 789 ;
790 [label="X[5] <= -0.2985\ngini = 0.375\nsamples = 4\nvalue = [3, 1]"] ;
788 -> 790 ;
791 [label="gini = 0.0\nsamples = 1\nvalue = [0, 1]"] ;
790 -> 791 ;
792 [label="gini = 0.0\nsamples = 3\nvalue = [3, 0]"] ;
790 -> 792 ;
793 [label="X[3] <= -0.1067\ngini = 0.5\nsamples = 2\nvalue = [1, 1]"] ;
787 -> 793 ;
794 [label="gini = 0.0\nsamples = 1\nvalue = [0, 1]"] ;
793 -> 794 ;
795 [label="gini = 0.0\nsamples = 1\nvalue = [1, 0]"] ;
793 -> 795 ;
796 [label="X[5] <= -0.2294\ngini = 0.5\nsamples = 2\nvalue = [1, 1]"] ;
786 -> 796 ;
797 [label="gini = 0.0\nsamples = 1\nvalue = [0, 1]"] ;
796 -> 797 ;
798 [label="gini = 0.0\nsamples = 1\nvalue = [1, 0]"] ;
796 -> 798 ;
799 [label="gini = 0.0\nsamples = 1\nvalue = [0, 1]"] ;
785 -> 799 ;
800 [label="gini = 0.0\nsamples = 1\nvalue = [0, 1]"] ;
784 -> 800 ;
801 [label="gini = 0.0\nsamples = 2\nvalue = [0, 2]"] ;
783 -> 801 ;
802 [label="gini = 0.0\nsamples = 3\nvalue = [0, 3]"] ;
782 -> 802 ;
803 [label="gini = 0.0\nsamples = 10\nvalue = [10, 0]"] ;
781 -> 803 ;
804 [label="X[34] <= 8.2547\ngini = 0.3457\nsamples = 9\nvalue = [2, 7]"] ;
780 -> 804 ;
805 [label="X[6] <= 0.9746\ngini = 0.2188\nsamples = 8\nvalue = [1, 7]"] ;
804 -> 805 ;
806 [label="gini = 0.0\nsamples = 1\nvalue = [1, 0]"] ;
805 -> 806 ;
807 [label="gini = 0.0\nsamples = 7\nvalue = [0, 7]"] ;
805 -> 807 ;
808 [label="gini = 0.0\nsamples = 1\nvalue = [1, 0]"] ;
804 -> 808 ;
809 [label="X[242] <= 2.9085\ngini = 0.2604\nsamples = 52\nvalue = [44, 8]"] ;
779 -> 809 ;
810 [label="X[5] <= -0.4596\ngini = 0.2149\nsamples = 49\nvalue = [43, 6]"] ;
809 -> 810 ;
811 [label="gini = 0.0\nsamples = 1\nvalue = [0, 1]"] ;
810 -> 811 ;
812 [label="X[290] <= 7.3731\ngini = 0.1866\nsamples = 48\nvalue = [43, 5]"] ;
810 -> 812 ;
813 [label="X[6] <= 0.9845\ngini = 0.1557\nsamples = 47\nvalue = [43, 4]"] ;
812 -> 813 ;
814 [label="X[5] <= 1.5201\ngini = 0.4688\nsamples = 8\nvalue = [5, 3]"] ;
813 -> 814 ;
815 [label="X[6] <= 0.9754\ngini = 0.2778\nsamples = 6\nvalue = [5, 1]"] ;
814 -> 815 ;
816 [label="gini = 0.0\nsamples = 5\nvalue = [5, 0]"] ;
815 -> 816 ;
817 [label="gini = 0.0\nsamples = 1\nvalue = [0, 1]"] ;
815 -> 817 ;
818 [label="gini = 0.0\nsamples = 2\nvalue = [0, 2]"] ;
814 -> 818 ;
819 [label="X[63] <= 2.9322\ngini = 0.05\nsamples = 39\nvalue = [38, 1]"] ;
813 -> 819 ;
820 [label="gini = 0.0\nsamples = 36\nvalue = [36, 0]"] ;
819 -> 820 ;
821 [label="X[3] <= 0.3062\ngini = 0.4444\nsamples = 3\nvalue = [2, 1]"] ;
819 -> 821 ;
822 [label="gini = 0.0\nsamples = 2\nvalue = [2, 0]"] ;
821 -> 822 ;
823 [label="gini = 0.0\nsamples = 1\nvalue = [0, 1]"] ;
821 -> 823 ;
824 [label="gini = 0.0\nsamples = 1\nvalue = [0, 1]"] ;
812 -> 824 ;
825 [label="X[6] <= 1.0561\ngini = 0.4444\nsamples = 3\nvalue = [1, 2]"] ;
809 -> 825 ;
826 [label="gini = 0.0\nsamples = 1\nvalue = [1, 0]"] ;
825 -> 826 ;
827 [label="gini = 0.0\nsamples = 2\nvalue = [0, 2]"] ;
825 -> 827 ;
828 [label="X[6] <= 1.8926\ngini = 0.4787\nsamples = 63\nvalue = [38, 25]"] ;
778 -> 828 ;
829 [label="gini = 0.0\nsamples = 4\nvalue = [0, 4]"] ;
828 -> 829 ;
830 [label="X[242] <= 2.9085\ngini = 0.4585\nsamples = 59\nvalue = [38, 21]"] ;
828 -> 830 ;
831 [label="X[2] <= 0.0703\ngini = 0.4444\nsamples = 57\nvalue = [38, 19]"] ;
830 -> 831 ;
832 [label="X[4] <= 1.8164\ngini = 0.4959\nsamples = 33\nvalue = [18, 15]"] ;
831 -> 832 ;
833 [label="X[4] <= 0.3738\ngini = 0.4994\nsamples = 29\nvalue = [14, 15]"] ;
832 -> 833 ;
834 [label="X[6] <= 2.4807\ngini = 0.4717\nsamples = 21\nvalue = [13, 8]"] ;
833 -> 834 ;
835 [label="X[25] <= 11.8729\ngini = 0.2975\nsamples = 11\nvalue = [9, 2]"] ;
834 -> 835 ;
836 [label="X[134] <= 3.5995\ngini = 0.18\nsamples = 10\nvalue = [9, 1]"] ;
835 -> 836 ;
837 [label="gini = 0.0\nsamples = 9\nvalue = [9, 0]"] ;
836 -> 837 ;
838 [label="gini = 0.0\nsamples = 1\nvalue = [0, 1]"] ;
836 -> 838 ;
839 [label="gini = 0.0\nsamples = 1\nvalue = [0, 1]"] ;
835 -> 839 ;
840 [label="X[6] <= 3.3186\ngini = 0.48\nsamples = 10\nvalue = [4, 6]"] ;
834 -> 840 ;
841 [label="gini = 0.0\nsamples = 6\nvalue = [0, 6]"] ;
840 -> 841 ;
842 [label="gini = 0.0\nsamples = 4\nvalue = [4, 0]"] ;
840 -> 842 ;
843 [label="X[139] <= 21.217\ngini = 0.2188\nsamples = 8\nvalue = [1, 7]"] ;
833 -> 843 ;
844 [label="gini = 0.0\nsamples = 7\nvalue = [0, 7]"] ;
843 -> 844 ;
845 [label="gini = 0.0\nsamples = 1\nvalue = [1, 0]"] ;
843 -> 845 ;
846 [label="gini = 0.0\nsamples = 4\nvalue = [4, 0]"] ;
832 -> 846 ;
847 [label="X[5] <= -0.4596\ngini = 0.2778\nsamples = 24\nvalue = [20, 4]"] ;
831 -> 847 ;
848 [label="gini = 0.0\nsamples = 1\nvalue = [0, 1]"] ;
847 -> 848 ;
849 [label="X[116] <= 3.9872\ngini = 0.2268\nsamples = 23\nvalue = [20, 3]"] ;
847 -> 849 ;
850 [label="X[150] <= 2.2806\ngini = 0.1653\nsamples = 22\nvalue = [20, 2]"] ;
849 -> 850 ;
851 [label="X[5] <= 1.8424\ngini = 0.0907\nsamples = 21\nvalue = [20, 1]"] ;
850 -> 851 ;
852 [label="gini = 0.0\nsamples = 20\nvalue = [20, 0]"] ;
851 -> 852 ;
853 [label="gini = 0.0\nsamples = 1\nvalue = [0, 1]"] ;
851 -> 853 ;
854 [label="gini = 0.0\nsamples = 1\nvalue = [0, 1]"] ;
850 -> 854 ;
855 [label="gini = 0.0\nsamples = 1\nvalue = [0, 1]"] ;
849 -> 855 ;
856 [label="gini = 0.0\nsamples = 2\nvalue = [0, 2]"] ;
830 -> 856 ;
857 [label="gini = 0.0\nsamples = 2\nvalue = [0, 2]"] ;
775 -> 857 ;
858 [label="X[158] <= 9.9222\ngini = 0.1795\nsamples = 3040\nvalue = [2737, 303]"] ;
2 -> 858 ;
859 [label="X[304] <= 10.0237\ngini = 0.1781\nsamples = 3036\nvalue = [2736, 300]"] ;
858 -> 859 ;
860 [label="X[6] <= 0.19\ngini = 0.1768\nsamples = 3031\nvalue = [2734, 297]"] ;
859 -> 860 ;
861 [label="X[207] <= 13.7848\ngini = 0.162\nsamples = 2430\nvalue = [2214, 216]"] ;
860 -> 861 ;
862 [label="X[303] <= 23.4598\ngini = 0.1608\nsamples = 2427\nvalue = [2213, 214]"] ;
861 -> 862 ;
863 [label="X[127] <= 14.9902\ngini = 0.1602\nsamples = 2426\nvalue = [2213, 213]"] ;
862 -> 863 ;
864 [label="X[86] <= 18.1636\ngini = 0.1596\nsamples = 2425\nvalue = [2213, 212]"] ;
863 -> 864 ;
865 [label="X[35] <= 10.0237\ngini = 0.1589\nsamples = 2424\nvalue = [2213, 211]"] ;
864 -> 865 ;
866 [label="X[200] <= 6.8515\ngini = 0.1578\nsamples = 2420\nvalue = [2211, 209]"] ;
865 -> 866 ;
867 [label="X[0] <= -1.0653\ngini = 0.156\nsamples = 2404\nvalue = [2199, 205]"] ;
866 -> 867 ;
868 [label="X[2] <= -0.1235\ngini = 0.218\nsamples = 241\nvalue = [211, 30]"] ;
867 -> 868 ;
869 [label="X[58] <= 7.1357\ngini = 0.1998\nsamples = 231\nvalue = [205, 26]"] ;
868 -> 869 ;
870 [label="X[85] <= 13.2813\ngini = 0.1938\nsamples = 230\nvalue = [205, 25]"] ;
869 -> 870 ;
871 [label="X[82] <= 17.5855\ngini = 0.1876\nsamples = 229\nvalue = [205, 24]"] ;
870 -> 871 ;
872 [label="X[295] <= 7.1737\ngini = 0.1814\nsamples = 228\nvalue = [205, 23]"] ;
871 -> 872 ;
873 [label="X[291] <= 20.3122\ngini = 0.175\nsamples = 227\nvalue = [205, 22]"] ;
872 -> 873 ;
874 [label="X[231] <= 10.9648\ngini = 0.1686\nsamples = 226\nvalue = [205, 21]"] ;
873 -> 874 ;
875 [label="X[2] <= -0.2561\ngini = 0.162\nsamples = 225\nvalue = [205, 20]"] ;
874 -> 875 ;
876 [label="X[266] <= 4.9952\ngini = 0.1938\nsamples = 184\nvalue = [164, 20]"] ;
875 -> 876 ;
877 [label="X[2] <= -0.2587\ngini = 0.1861\nsamples = 183\nvalue = [164, 19]"] ;
876 -> 877 ;
878 [label="X[32] <= 6.5101\ngini = 0.1782\nsamples = 182\nvalue = [164, 18]"] ;
877 -> 878 ;
879 [label="X[148] <= 2.4586\ngini = 0.1644\nsamples = 177\nvalue = [161, 16]"] ;
878 -> 879 ;
880 [label="X[234] <= 10.7051\ngini = 0.1503\nsamples = 171\nvalue = [157, 14]"] ;
879 -> 880 ;
881 [label="X[280] <= 6.7214\ngini = 0.142\nsamples = 169\nvalue = [156, 13]"] ;
880 -> 881 ;
882 [label="X[110] <= 4.2062\ngini = 0.1334\nsamples = 167\nvalue = [155, 12]"] ;
881 -> 882 ;
883 [label="X[316] <= 5.0911\ngini = 0.1244\nsamples = 165\nvalue = [154, 11]"] ;
882 -> 883 ;
884 [label="X[257] <= 18.1636\ngini = 0.1152\nsamples = 163\nvalue = [153, 10]"] ;
883 -> 884 ;
885 [label="X[242] <= 2.9085\ngini = 0.1056\nsamples = 161\nvalue = [152, 9]"] ;
884 -> 885 ;
886 [label="X[6] <= -0.8163\ngini = 0.0868\nsamples = 154\nvalue = [147, 7]"] ;
885 -> 886 ;
887 [label="X[6] <= -0.818\ngini = 0.2248\nsamples = 31\nvalue = [27, 4]"] ;
886 -> 887 ;
888 [label="X[150] <= 2.2806\ngini = 0.0689\nsamples = 28\nvalue = [27, 1]"] ;
887 -> 888 ;
889 [label="gini = 0.0\nsamples = 27\nvalue = [27, 0]"] ;
888 -> 889 ;
890 [label="gini = 0.0\nsamples = 1\nvalue = [0, 1]"] ;
888 -> 890 ;
891 [label="gini = 0.0\nsamples = 3\nvalue = [0, 3]"] ;
887 -> 891 ;
892 [label="X[160] <= 5.431\ngini = 0.0476\nsamples = 123\nvalue = [120, 3]"] ;
886 -> 892 ;
893 [label="X[56] <= 12.6194\ngini = 0.0325\nsamples = 121\nvalue = [119, 2]"] ;
892 -> 893 ;
894 [label="X[154] <= 1.741\ngini = 0.0168\nsamples = 118\nvalue = [117, 1]"] ;
893 -> 894 ;
895 [label="gini = 0.0\nsamples = 108\nvalue = [108, 0]"] ;
894 -> 895 ;
896 [label="X[3] <= -0.559\ngini = 0.18\nsamples = 10\nvalue = [9, 1]"] ;
894 -> 896 ;
897 [label="gini = 0.0\nsamples = 9\nvalue = [9, 0]"] ;
896 -> 897 ;
898 [label="gini = 0.0\nsamples = 1\nvalue = [0, 1]"] ;
896 -> 898 ;
899 [label="X[6] <= -0.8099\ngini = 0.4444\nsamples = 3\nvalue = [2, 1]"] ;
893 -> 899 ;
900 [label="gini = 0.0\nsamples = 2\nvalue = [2, 0]"] ;
899 -> 900 ;
901 [label="gini = 0.0\nsamples = 1\nvalue = [0, 1]"] ;
899 -> 901 ;
902 [label="X[0] <= -1.2872\ngini = 0.5\nsamples = 2\nvalue = [1, 1]"] ;
892 -> 902 ;
903 [label="gini = 0.0\nsamples = 1\nvalue = [0, 1]"] ;
902 -> 903 ;
904 [label="gini = 0.0\nsamples = 1\nvalue = [1, 0]"] ;
902 -> 904 ;
905 [label="X[6] <= -0.8018\ngini = 0.4082\nsamples = 7\nvalue = [5, 2]"] ;
885 -> 905 ;
906 [label="gini = 0.0\nsamples = 4\nvalue = [4, 0]"] ;
905 -> 906 ;
907 [label="X[0] <= -1.2872\ngini = 0.4444\nsamples = 3\nvalue = [1, 2]"] ;
905 -> 907 ;
908 [label="gini = 0.0\nsamples = 1\nvalue = [1, 0]"] ;
907 -> 908 ;
909 [label="gini = 0.0\nsamples = 2\nvalue = [0, 2]"] ;
907 -> 909 ;
910 [label="X[0] <= -1.1762\ngini = 0.5\nsamples = 2\nvalue = [1, 1]"] ;
884 -> 910 ;
911 [label="gini = 0.0\nsamples = 1\nvalue = [0, 1]"] ;
910 -> 911 ;
912 [label="gini = 0.0\nsamples = 1\nvalue = [1, 0]"] ;
910 -> 912 ;
913 [label="X[3] <= -0.8401\ngini = 0.5\nsamples = 2\nvalue = [1, 1]"] ;
883 -> 913 ;
914 [label="gini = 0.0\nsamples = 1\nvalue = [1, 0]"] ;
913 -> 914 ;
915 [label="gini = 0.0\nsamples = 1\nvalue = [0, 1]"] ;
913 -> 915 ;
916 [label="X[4] <= -0.5271\ngini = 0.5\nsamples = 2\nvalue = [1, 1]"] ;
882 -> 916 ;
917 [label="gini = 0.0\nsamples = 1\nvalue = [1, 0]"] ;
916 -> 917 ;
918 [label="gini = 0.0\nsamples = 1\nvalue = [0, 1]"] ;
916 -> 918 ;
919 [label="X[5] <= -1.0581\ngini = 0.5\nsamples = 2\nvalue = [1, 1]"] ;
881 -> 919 ;
920 [label="gini = 0.0\nsamples = 1\nvalue = [0, 1]"] ;
919 -> 920 ;
921 [label="gini = 0.0\nsamples = 1\nvalue = [1, 0]"] ;
919 -> 921 ;
922 [label="X[5] <= -0.9661\ngini = 0.5\nsamples = 2\nvalue = [1, 1]"] ;
880 -> 922 ;
923 [label="gini = 0.0\nsamples = 1\nvalue = [0, 1]"] ;
922 -> 923 ;
924 [label="gini = 0.0\nsamples = 1\nvalue = [1, 0]"] ;
922 -> 924 ;
925 [label="X[6] <= -0.6943\ngini = 0.4444\nsamples = 6\nvalue = [4, 2]"] ;
879 -> 925 ;
926 [label="gini = 0.0\nsamples = 3\nvalue = [3, 0]"] ;
925 -> 926 ;
927 [label="X[0] <= -1.2872\ngini = 0.4444\nsamples = 3\nvalue = [1, 2]"] ;
925 -> 927 ;
928 [label="gini = 0.0\nsamples = 1\nvalue = [1, 0]"] ;
927 -> 928 ;
929 [label="gini = 0.0\nsamples = 2\nvalue = [0, 2]"] ;
927 -> 929 ;
930 [label="X[3] <= -1.0289\ngini = 0.48\nsamples = 5\nvalue = [3, 2]"] ;
878 -> 930 ;
931 [label="gini = 0.0\nsamples = 2\nvalue = [0, 2]"] ;
930 -> 931 ;
932 [label="gini = 0.0\nsamples = 3\nvalue = [3, 0]"] ;
930 -> 932 ;
933 [label="gini = 0.0\nsamples = 1\nvalue = [0, 1]"] ;
877 -> 933 ;
934 [label="gini = 0.0\nsamples = 1\nvalue = [0, 1]"] ;
876 -> 934 ;
935 [label="gini = 0.0\nsamples = 41\nvalue = [41, 0]"] ;
875 -> 935 ;
936 [label="gini = 0.0\nsamples = 1\nvalue = [0, 1]"] ;
874 -> 936 ;
937 [label="gini = 0.0\nsamples = 1\nvalue = [0, 1]"] ;
873 -> 937 ;
938 [label="gini = 0.0\nsamples = 1\nvalue = [0, 1]"] ;
872 -> 938 ;
939 [label="gini = 0.0\nsamples = 1\nvalue = [0, 1]"] ;
871 -> 939 ;
940 [label="gini = 0.0\nsamples = 1\nvalue = [0, 1]"] ;
870 -> 940 ;
941 [label="gini = 0.0\nsamples = 1\nvalue = [0, 1]"] ;
869 -> 941 ;
942 [label="X[3] <= -0.4536\ngini = 0.48\nsamples = 10\nvalue = [6, 4]"] ;
868 -> 942 ;
943 [label="gini = 0.0\nsamples = 2\nvalue = [0, 2]"] ;
942 -> 943 ;
944 [label="X[5] <= -0.0452\ngini = 0.375\nsamples = 8\nvalue = [6, 2]"] ;
942 -> 944 ;
945 [label="gini = 0.0\nsamples = 5\nvalue = [5, 0]"] ;
944 -> 945 ;
946 [label="X[2] <= 0.0716\ngini = 0.4444\nsamples = 3\nvalue = [1, 2]"] ;
944 -> 946 ;
947 [label="gini = 0.0\nsamples = 2\nvalue = [0, 2]"] ;
946 -> 947 ;
948 [label="gini = 0.0\nsamples = 1\nvalue = [1, 0]"] ;
946 -> 948 ;
949 [label="X[288] <= 13.0493\ngini = 0.1487\nsamples = 2163\nvalue = [1988, 175]"] ;
867 -> 949 ;
950 [label="X[6] <= -0.5365\ngini = 0.148\nsamples = 2162\nvalue = [1988, 174]"] ;
949 -> 950 ;
951 [label="X[279] <= 16.5773\ngini = 0.1209\nsamples = 1052\nvalue = [984, 68]"] ;
950 -> 951 ;
952 [label="X[0] <= 1.7588\ngini = 0.1194\nsamples = 1051\nvalue = [984, 67]"] ;
951 -> 952 ;
953 [label="X[267] <= 4.8061\ngini = 0.1166\nsamples = 1046\nvalue = [981, 65]"] ;
952 -> 953 ;
954 [label="X[113] <= 14.3498\ngini = 0.1125\nsamples = 1036\nvalue = [974, 62]"] ;
953 -> 954 ;
955 [label="X[287] <= 14.3498\ngini = 0.111\nsamples = 1034\nvalue = [973, 61]"] ;
954 -> 955 ;
956 [label="X[5] <= 4.766\ngini = 0.1095\nsamples = 1032\nvalue = [972, 60]"] ;
955 -> 956 ;
957 [label="X[156] <= 16.1339\ngini = 0.108\nsamples = 1030\nvalue = [971, 59]"] ;
956 -> 957 ;
958 [label="X[265] <= 6.4533\ngini = 0.1065\nsamples = 1028\nvalue = [970, 58]"] ;
957 -> 958 ;
959 [label="X[37] <= 7.8263\ngini = 0.1037\nsamples = 1021\nvalue = [965, 56]"] ;
958 -> 959 ;
960 [label="X[280] <= 6.7214\ngini = 0.1008\nsamples = 1014\nvalue = [960, 54]"] ;
959 -> 960 ;
961 [label="X[3] <= -0.3965\ngini = 0.098\nsamples = 1006\nvalue = [954, 52]"] ;
960 -> 961 ;
962 [label="X[216] <= 6.3172\ngini = 0.1219\nsamples = 644\nvalue = [602, 42]"] ;
961 -> 962 ;
963 [label="X[167] <= 17.5855\ngini = 0.1196\nsamples = 642\nvalue = [601, 41]"] ;
962 -> 963 ;
964 [label="X[99] <= 8.2547\ngini = 0.1172\nsamples = 640\nvalue = [600, 40]"] ;
963 -> 964 ;
965 [label="X[3] <= -0.4492\ngini = 0.1148\nsamples = 638\nvalue = [599, 39]"] ;
964 -> 965 ;
966 [label="X[4] <= 0.058\ngini = 0.1039\nsamples = 600\nvalue = [567, 33]"] ;
965 -> 966 ;
967 [label="X[94] <= 12.4198\ngini = 0.0976\nsamples = 583\nvalue = [553, 30]"] ;
966 -> 967 ;
968 [label="X[124] <= 10.4629\ngini = 0.095\nsamples = 580\nvalue = [551, 29]"] ;
967 -> 968 ;
969 [label="X[190] <= 5.348\ngini = 0.0923\nsamples = 577\nvalue = [549, 28]"] ;
968 -> 969 ;
970 [label="X[56] <= 12.6194\ngini = 0.0897\nsamples = 574\nvalue = [547, 27]"] ;
969 -> 970 ;
971 [label="X[252] <= 9.7281\ngini = 0.0869\nsamples = 571\nvalue = [545, 26]"] ;
970 -> 971 ;
972 [label="X[261] <= 12.829\ngini = 0.0842\nsamples = 568\nvalue = [543, 25]"] ;
971 -> 972 ;
973 [label="X[312] <= 6.2395\ngini = 0.0813\nsamples = 565\nvalue = [541, 24]"] ;
972 -> 973 ;
974 [label="X[23] <= 4.2986\ngini = 0.0785\nsamples = 562\nvalue = [539, 23]"] ;
973 -> 974 ;
975 [label="X[6] <= -0.8198\ngini = 0.0732\nsamples = 552\nvalue = [531, 21]"] ;
974 -> 975 ;
976 [label="X[63] <= 2.9322\ngini = 0.2268\nsamples = 23\nvalue = [20, 3]"] ;
975 -> 976 ;
977 [label="X[6] <= -0.8202\ngini = 0.1653\nsamples = 22\nvalue = [20, 2]"] ;
976 -> 977 ;
978 [label="X[22] <= 5.7044\ngini = 0.0907\nsamples = 21\nvalue = [20, 1]"] ;
977 -> 978 ;
979 [label="gini = 0.0\nsamples = 20\nvalue = [20, 0]"] ;
978 -> 979 ;
980 [label="gini = 0.0\nsamples = 1\nvalue = [0, 1]"] ;
978 -> 980 ;
981 [label="gini = 0.0\nsamples = 1\nvalue = [0, 1]"] ;
977 -> 981 ;
982 [label="gini = 0.0\nsamples = 1\nvalue = [0, 1]"] ;
976 -> 982 ;
983 [label="X[245] <= 8.9756\ngini = 0.0657\nsamples = 529\nvalue = [511, 18]"] ;
975 -> 983 ;
984 [label="X[235] <= 8.1411\ngini = 0.0627\nsamples = 525\nvalue = [508, 17]"] ;
983 -> 984 ;
985 [label="X[150] <= 2.2806\ngini = 0.0595\nsamples = 521\nvalue = [505, 16]"] ;
984 -> 985 ;
986 [label="X[185] <= 3.5429\ngini = 0.0513\nsamples = 493\nvalue = [480, 13]"] ;
985 -> 986 ;
987 [label="X[233] <= 4.3248\ngini = 0.048\nsamples = 488\nvalue = [476, 12]"] ;
986 -> 987 ;
988 [label="X[316] <= 5.0911\ngini = 0.0445\nsamples = 483\nvalue = [472, 11]"] ;
987 -> 988 ;
989 [label="X[36] <= 6.659\ngini = 0.041\nsamples = 477\nvalue = [467, 10]"] ;
988 -> 989 ;
990 [label="X[149] <= 2.3913\ngini = 0.0376\nsamples = 470\nvalue = [461, 9]"] ;
989 -> 990 ;
991 [label="X[122] <= 5.7044\ngini = 0.031\nsamples = 444\nvalue = [437, 7]"] ;
990 -> 991 ;
992 [label="X[64] <= 3.7855\ngini = 0.0271\nsamples = 436\nvalue = [430, 6]"] ;
991 -> 992 ;
993 [label="X[3] <= -1.0377\ngini = 0.0234\nsamples = 423\nvalue = [418, 5]"] ;
992 -> 993 ;
994 [label="X[3] <= -1.0465\ngini = 0.0849\nsamples = 45\nvalue = [43, 2]"] ;
993 -> 994 ;
995 [label="gini = 0.0\nsamples = 39\nvalue = [39, 0]"] ;
994 -> 995 ;
996 [label="X[4] <= -0.6986\ngini = 0.4444\nsamples = 6\nvalue = [4, 2]"] ;
994 -> 996 ;
997 [label="gini = 0.0\nsamples = 3\nvalue = [3, 0]"] ;
996 -> 997 ;
998 [label="X[2] <= -0.26\ngini = 0.4444\nsamples = 3\nvalue = [1, 2]"] ;
996 -> 998 ;
999 [label="gini = 0.0\nsamples = 2\nvalue = [0, 2]"] ;
998 -> 999 ;
1000 [label="gini = 0.0\nsamples = 1\nvalue = [1, 0]"] ;
998 -> 1000 ;
1001 [label="X[148] <= 2.4586\ngini = 0.0157\nsamples = 378\nvalue = [375, 3]"] ;
993 -> 1001 ;
1002 [label="X[242] <= 2.9085\ngini = 0.011\nsamples = 362\nvalue = [360, 2]"] ;
1001 -> 1002 ;
1003 [label="X[154] <= 1.741\ngini = 0.0059\nsamples = 339\nvalue = [338, 1]"] ;
1002 -> 1003 ;
1004 [label="gini = 0.0\nsamples = 288\nvalue = [288, 0]"] ;
1003 -> 1004 ;
1005 [label="X[0] <= -0.9044\ngini = 0.0384\nsamples = 51\nvalue = [50, 1]"] ;
1003 -> 1005 ;
1006 [label="X[3] <= -0.8884\ngini = 0.1975\nsamples = 9\nvalue = [8, 1]"] ;
1005 -> 1006 ;
1007 [label="X[2] <= -0.3003\ngini = 0.4444\nsamples = 3\nvalue = [2, 1]"] ;
1006 -> 1007 ;
1008 [label="gini = 0.0\nsamples = 2\nvalue = [2, 0]"] ;
1007 -> 1008 ;
1009 [label="gini = 0.0\nsamples = 1\nvalue = [0, 1]"] ;
1007 -> 1009 ;
1010 [label="gini = 0.0\nsamples = 6\nvalue = [6, 0]"] ;
1006 -> 1010 ;
1011 [label="gini = 0.0\nsamples = 42\nvalue = [42, 0]"] ;
1005 -> 1011 ;
1012 [label="X[4] <= -0.4038\ngini = 0.0832\nsamples = 23\nvalue = [22, 1]"] ;
1002 -> 1012 ;
1013 [label="gini = 0.0\nsamples = 19\nvalue = [19, 0]"] ;
1012 -> 1013 ;
1014 [label="X[4] <= -0.3217\ngini = 0.375\nsamples = 4\nvalue = [3, 1]"] ;
1012 -> 1014 ;
1015 [label="gini = 0.0\nsamples = 1\nvalue = [0, 1]"] ;
1014 -> 1015 ;
1016 [label="gini = 0.0\nsamples = 3\nvalue = [3, 0]"] ;
1014 -> 1016 ;
1017 [label="X[3] <= -0.5634\ngini = 0.1172\nsamples = 16\nvalue = [15, 1]"] ;
1001 -> 1017 ;
1018 [label="gini = 0.0\nsamples = 14\nvalue = [14, 0]"] ;
1017 -> 1018 ;
1019 [label="X[6] <= -0.7528\ngini = 0.5\nsamples = 2\nvalue = [1, 1]"] ;
1017 -> 1019 ;
1020 [label="gini = 0.0\nsamples = 1\nvalue = [0, 1]"] ;
1019 -> 1020 ;
1021 [label="gini = 0.0\nsamples = 1\nvalue = [1, 0]"] ;
1019 -> 1021 ;
1022 [label="X[4] <= -0.458\ngini = 0.142\nsamples = 13\nvalue = [12, 1]"] ;
992 -> 1022 ;
1023 [label="gini = 0.0\nsamples = 11\nvalue = [11, 0]"] ;
1022 -> 1023 ;
1024 [label="X[4] <= -0.4471\ngini = 0.5\nsamples = 2\nvalue = [1, 1]"] ;
1022 -> 1024 ;
1025 [label="gini = 0.0\nsamples = 1\nvalue = [0, 1]"] ;
1024 -> 1025 ;
1026 [label="gini = 0.0\nsamples = 1\nvalue = [1, 0]"] ;
1024 -> 1026 ;
1027 [label="X[6] <= -0.7954\ngini = 0.2188\nsamples = 8\nvalue = [7, 1]"] ;
991 -> 1027 ;
1028 [label="gini = 0.0\nsamples = 1\nvalue = [0, 1]"] ;
1027 -> 1028 ;
1029 [label="gini = 0.0\nsamples = 7\nvalue = [7, 0]"] ;
1027 -> 1029 ;
1030 [label="X[6] <= -0.6094\ngini = 0.142\nsamples = 26\nvalue = [24, 2]"] ;
990 -> 1030 ;
1031 [label="gini = 0.0\nsamples = 22\nvalue = [22, 0]"] ;
1030 -> 1031 ;
1032 [label="X[6] <= -0.5692\ngini = 0.5\nsamples = 4\nvalue = [2, 2]"] ;
1030 -> 1032 ;
1033 [label="gini = 0.0\nsamples = 2\nvalue = [0, 2]"] ;
1032 -> 1033 ;
1034 [label="gini = 0.0\nsamples = 2\nvalue = [2, 0]"] ;
1032 -> 1034 ;
1035 [label="X[4] <= -0.441\ngini = 0.2449\nsamples = 7\nvalue = [6, 1]"] ;
989 -> 1035 ;
1036 [label="gini = 0.0\nsamples = 5\nvalue = [5, 0]"] ;
1035 -> 1036 ;
1037 [label="X[6] <= -0.6488\ngini = 0.5\nsamples = 2\nvalue = [1, 1]"] ;
1035 -> 1037 ;
1038 [label="gini = 0.0\nsamples = 1\nvalue = [0, 1]"] ;
1037 -> 1038 ;
1039 [label="gini = 0.0\nsamples = 1\nvalue = [1, 0]"] ;
1037 -> 1039 ;
1040 [label="X[2] <= -0.3172\ngini = 0.2778\nsamples = 6\nvalue = [5, 1]"] ;
988 -> 1040 ;
1041 [label="gini = 0.0\nsamples = 5\nvalue = [5, 0]"] ;
1040 -> 1041 ;
1042 [label="gini = 0.0\nsamples = 1\nvalue = [0, 1]"] ;
1040 -> 1042 ;
1043 [label="X[1] <= 0.7813\ngini = 0.32\nsamples = 5\nvalue = [4, 1]"] ;
987 -> 1043 ;
1044 [label="gini = 0.0\nsamples = 4\nvalue = [4, 0]"] ;
1043 -> 1044 ;
1045 [label="gini = 0.0\nsamples = 1\nvalue = [0, 1]"] ;
1043 -> 1045 ;
1046 [label="X[6] <= -0.8042\ngini = 0.32\nsamples = 5\nvalue = [4, 1]"] ;
986 -> 1046 ;
1047 [label="gini = 0.0\nsamples = 1\nvalue = [0, 1]"] ;
1046 -> 1047 ;
1048 [label="gini = 0.0\nsamples = 4\nvalue = [4, 0]"] ;
1046 -> 1048 ;
1049 [label="X[3] <= -0.6512\ngini = 0.1913\nsamples = 28\nvalue = [25, 3]"] ;
985 -> 1049 ;
1050 [label="X[4] <= -0.6817\ngini = 0.0832\nsamples = 23\nvalue = [22, 1]"] ;
1049 -> 1050 ;
1051 [label="X[4] <= -0.686\ngini = 0.5\nsamples = 2\nvalue = [1, 1]"] ;
1050 -> 1051 ;
1052 [label="gini = 0.0\nsamples = 1\nvalue = [1, 0]"] ;
1051 -> 1052 ;
1053 [label="gini = 0.0\nsamples = 1\nvalue = [0, 1]"] ;
1051 -> 1053 ;
1054 [label="gini = 0.0\nsamples = 21\nvalue = [21, 0]"] ;
1050 -> 1054 ;
1055 [label="X[2] <= -0.2184\ngini = 0.48\nsamples = 5\nvalue = [3, 2]"] ;
1049 -> 1055 ;
1056 [label="gini = 0.0\nsamples = 3\nvalue = [3, 0]"] ;
1055 -> 1056 ;
1057 [label="gini = 0.0\nsamples = 2\nvalue = [0, 2]"] ;
1055 -> 1057 ;
1058 [label="X[3] <= -0.7171\ngini = 0.375\nsamples = 4\nvalue = [3, 1]"] ;
984 -> 1058 ;
1059 [label="gini = 0.0\nsamples = 3\nvalue = [3, 0]"] ;
1058 -> 1059 ;
1060 [label="gini = 0.0\nsamples = 1\nvalue = [0, 1]"] ;
1058 -> 1060 ;
1061 [label="X[5] <= -0.5977\ngini = 0.375\nsamples = 4\nvalue = [3, 1]"] ;
983 -> 1061 ;
1062 [label="X[0] <= -0.627\ngini = 0.5\nsamples = 2\nvalue = [1, 1]"] ;
1061 -> 1062 ;
1063 [label="gini = 0.0\nsamples = 1\nvalue = [0, 1]"] ;
1062 -> 1063 ;
1064 [label="gini = 0.0\nsamples = 1\nvalue = [1, 0]"] ;
1062 -> 1064 ;
1065 [label="gini = 0.0\nsamples = 2\nvalue = [2, 0]"] ;
1061 -> 1065 ;
1066 [label="X[4] <= -0.6852\ngini = 0.32\nsamples = 10\nvalue = [8, 2]"] ;
974 -> 1066 ;
1067 [label="gini = 0.0\nsamples = 1\nvalue = [0, 1]"] ;
1066 -> 1067 ;
1068 [label="X[5] <= -1.0121\ngini = 0.1975\nsamples = 9\nvalue = [8, 1]"] ;
1066 -> 1068 ;
1069 [label="X[2] <= -0.3354\ngini = 0.5\nsamples = 2\nvalue = [1, 1]"] ;
1068 -> 1069 ;
1070 [label="gini = 0.0\nsamples = 1\nvalue = [1, 0]"] ;
1069 -> 1070 ;
1071 [label="gini = 0.0\nsamples = 1\nvalue = [0, 1]"] ;
1069 -> 1071 ;
1072 [label="gini = 0.0\nsamples = 7\nvalue = [7, 0]"] ;
1068 -> 1072 ;
1073 [label="X[3] <= -0.8401\ngini = 0.4444\nsamples = 3\nvalue = [2, 1]"] ;
973 -> 1073 ;
1074 [label="gini = 0.0\nsamples = 1\nvalue = [0, 1]"] ;
1073 -> 1074 ;
1075 [label="gini = 0.0\nsamples = 2\nvalue = [2, 0]"] ;
1073 -> 1075 ;
1076 [label="X[6] <= -0.6752\ngini = 0.4444\nsamples = 3\nvalue = [2, 1]"] ;
972 -> 1076 ;
1077 [label="gini = 0.0\nsamples = 1\nvalue = [0, 1]"] ;
1076 -> 1077 ;
1078 [label="gini = 0.0\nsamples = 2\nvalue = [2, 0]"] ;
1076 -> 1078 ;
1079 [label="X[6] <= -0.7655\ngini = 0.4444\nsamples = 3\nvalue = [2, 1]"] ;
971 -> 1079 ;
1080 [label="gini = 0.0\nsamples = 2\nvalue = [2, 0]"] ;
1079 -> 1080 ;
1081 [label="gini = 0.0\nsamples = 1\nvalue = [0, 1]"] ;
1079 -> 1081 ;
1082 [label="X[5] <= -0.6668\ngini = 0.4444\nsamples = 3\nvalue = [2, 1]"] ;
970 -> 1082 ;
1083 [label="gini = 0.0\nsamples = 1\nvalue = [0, 1]"] ;
1082 -> 1083 ;
1084 [label="gini = 0.0\nsamples = 2\nvalue = [2, 0]"] ;
1082 -> 1084 ;
1085 [label="X[6] <= -0.6557\ngini = 0.4444\nsamples = 3\nvalue = [2, 1]"] ;
969 -> 1085 ;
1086 [label="gini = 0.0\nsamples = 1\nvalue = [0, 1]"] ;
1085 -> 1086 ;
1087 [label="gini = 0.0\nsamples = 2\nvalue = [2, 0]"] ;
1085 -> 1087 ;
1088 [label="X[0] <= -0.688\ngini = 0.4444\nsamples = 3\nvalue = [2, 1]"] ;
968 -> 1088 ;
1089 [label="gini = 0.0\nsamples = 1\nvalue = [0, 1]"] ;
1088 -> 1089 ;
1090 [label="gini = 0.0\nsamples = 2\nvalue = [2, 0]"] ;
1088 -> 1090 ;
1091 [label="X[5] <= -0.6208\ngini = 0.4444\nsamples = 3\nvalue = [2, 1]"] ;
967 -> 1091 ;
1092 [label="gini = 0.0\nsamples = 1\nvalue = [0, 1]"] ;
1091 -> 1092 ;
1093 [label="gini = 0.0\nsamples = 2\nvalue = [2, 0]"] ;
1091 -> 1093 ;
1094 [label="X[1] <= 0.1977\ngini = 0.2907\nsamples = 17\nvalue = [14, 3]"] ;
966 -> 1094 ;
1095 [label="X[0] <= -0.5715\ngini = 0.1244\nsamples = 15\nvalue = [14, 1]"] ;
1094 -> 1095 ;
1096 [label="gini = 0.0\nsamples = 1\nvalue = [0, 1]"] ;
1095 -> 1096 ;
1097 [label="gini = 0.0\nsamples = 14\nvalue = [14, 0]"] ;
1095 -> 1097 ;
1098 [label="gini = 0.0\nsamples = 2\nvalue = [0, 2]"] ;
1094 -> 1098 ;
1099 [label="X[6] <= -0.5748\ngini = 0.2659\nsamples = 38\nvalue = [32, 6]"] ;
965 -> 1099 ;
1100 [label="X[121] <= 5.9106\ngini = 0.1653\nsamples = 33\nvalue = [30, 3]"] ;
1099 -> 1100 ;
1101 [label="X[188] <= 5.4141\ngini = 0.1172\nsamples = 32\nvalue = [30, 2]"] ;
1100 -> 1101 ;
1102 [label="X[150] <= 2.2806\ngini = 0.0624\nsamples = 31\nvalue = [30, 1]"] ;
1101 -> 1102 ;
1103 [label="gini = 0.0\nsamples = 29\nvalue = [29, 0]"] ;
1102 -> 1103 ;
1104 [label="X[5] <= -0.1604\ngini = 0.5\nsamples = 2\nvalue = [1, 1]"] ;
1102 -> 1104 ;
1105 [label="gini = 0.0\nsamples = 1\nvalue = [1, 0]"] ;
1104 -> 1105 ;
1106 [label="gini = 0.0\nsamples = 1\nvalue = [0, 1]"] ;
1104 -> 1106 ;
1107 [label="gini = 0.0\nsamples = 1\nvalue = [0, 1]"] ;
1101 -> 1107 ;
1108 [label="gini = 0.0\nsamples = 1\nvalue = [0, 1]"] ;
1100 -> 1108 ;
1109 [label="X[5] <= -0.5287\ngini = 0.48\nsamples = 5\nvalue = [2, 3]"] ;
1099 -> 1109 ;
1110 [label="gini = 0.0\nsamples = 2\nvalue = [2, 0]"] ;
1109 -> 1110 ;
1111 [label="gini = 0.0\nsamples = 3\nvalue = [0, 3]"] ;
1109 -> 1111 ;
1112 [label="X[2] <= -0.26\ngini = 0.5\nsamples = 2\nvalue = [1, 1]"] ;
964 -> 1112 ;
1113 [label="gini = 0.0\nsamples = 1\nvalue = [1, 0]"] ;
1112 -> 1113 ;
1114 [label="gini = 0.0\nsamples = 1\nvalue = [0, 1]"] ;
1112 -> 1114 ;
1115 [label="X[5] <= -1.0581\ngini = 0.5\nsamples = 2\nvalue = [1, 1]"] ;
963 -> 1115 ;
1116 [label="gini = 0.0\nsamples = 1\nvalue = [0, 1]"] ;
1115 -> 1116 ;
1117 [label="gini = 0.0\nsamples = 1\nvalue = [1, 0]"] ;
1115 -> 1117 ;
1118 [label="X[6] <= -0.8034\ngini = 0.5\nsamples = 2\nvalue = [1, 1]"] ;
962 -> 1118 ;
1119 [label="gini = 0.0\nsamples = 1\nvalue = [1, 0]"] ;
1118 -> 1119 ;
1120 [label="gini = 0.0\nsamples = 1\nvalue = [0, 1]"] ;
1118 -> 1120 ;
1121 [label="X[1] <= 1.3649\ngini = 0.0537\nsamples = 362\nvalue = [352, 10]"] ;
961 -> 1121 ;
1122 [label="X[116] <= 3.9872\ngini = 0.0394\nsamples = 348\nvalue = [341, 7]"] ;
1121 -> 1122 ;
1123 [label="X[187] <= 5.8465\ngini = 0.0343\nsamples = 344\nvalue = [338, 6]"] ;
1122 -> 1123 ;
1124 [label="X[264] <= 7.6354\ngini = 0.029\nsamples = 340\nvalue = [335, 5]"] ;
1123 -> 1124 ;
1125 [label="X[51] <= 7.3731\ngini = 0.0235\nsamples = 336\nvalue = [332, 4]"] ;
1124 -> 1125 ;
1126 [label="X[2] <= 0.017\ngini = 0.018\nsamples = 330\nvalue = [327, 3]"] ;
1125 -> 1126 ;
1127 [label="gini = 0.0\nsamples = 277\nvalue = [277, 0]"] ;
1126 -> 1127 ;
1128 [label="X[2] <= 0.03\ngini = 0.1068\nsamples = 53\nvalue = [50, 3]"] ;
1126 -> 1128 ;
1129 [label="X[1] <= 0.1977\ngini = 0.4444\nsamples = 6\nvalue = [4, 2]"] ;
1128 -> 1129 ;
1130 [label="gini = 0.0\nsamples = 3\nvalue = [3, 0]"] ;
1129 -> 1130 ;
1131 [label="X[6] <= -0.6245\ngini = 0.4444\nsamples = 3\nvalue = [1, 2]"] ;
1129 -> 1131 ;
1132 [label="gini = 0.0\nsamples = 2\nvalue = [0, 2]"] ;
1131 -> 1132 ;
1133 [label="gini = 0.0\nsamples = 1\nvalue = [1, 0]"] ;
1131 -> 1133 ;
1134 [label="X[185] <= 3.5429\ngini = 0.0416\nsamples = 47\nvalue = [46, 1]"] ;
1128 -> 1134 ;
1135 [label="gini = 0.0\nsamples = 44\nvalue = [44, 0]"] ;
1134 -> 1135 ;
1136 [label="X[5] <= -0.0452\ngini = 0.4444\nsamples = 3\nvalue = [2, 1]"] ;
1134 -> 1136 ;
1137 [label="gini = 0.0\nsamples = 1\nvalue = [0, 1]"] ;
1136 -> 1137 ;
1138 [label="gini = 0.0\nsamples = 2\nvalue = [2, 0]"] ;
1136 -> 1138 ;
1139 [label="X[3] <= -0.1901\ngini = 0.2778\nsamples = 6\nvalue = [5, 1]"] ;
1125 -> 1139 ;
1140 [label="gini = 0.0\nsamples = 1\nvalue = [0, 1]"] ;
1139 -> 1140 ;
1141 [label="gini = 0.0\nsamples = 5\nvalue = [5, 0]"] ;
1139 -> 1141 ;
1142 [label="X[3] <= 0.3589\ngini = 0.375\nsamples = 4\nvalue = [3, 1]"] ;
1124 -> 1142 ;
1143 [label="gini = 0.0\nsamples = 1\nvalue = [0, 1]"] ;
1142 -> 1143 ;
1144 [label="gini = 0.0\nsamples = 3\nvalue = [3, 0]"] ;
1142 -> 1144 ;
1145 [label="X[5] <= 0.7835\ngini = 0.375\nsamples = 4\nvalue = [3, 1]"] ;
1123 -> 1145 ;
1146 [label="gini = 0.0\nsamples = 3\nvalue = [3, 0]"] ;
1145 -> 1146 ;
1147 [label="gini = 0.0\nsamples = 1\nvalue = [0, 1]"] ;
1145 -> 1147 ;
1148 [label="X[6] <= -0.6355\ngini = 0.375\nsamples = 4\nvalue = [3, 1]"] ;
1122 -> 1148 ;
1149 [label="gini = 0.0\nsamples = 3\nvalue = [3, 0]"] ;
1148 -> 1149 ;
1150 [label="gini = 0.0\nsamples = 1\nvalue = [0, 1]"] ;
1148 -> 1150 ;
1151 [label="X[211] <= 2.8738\ngini = 0.3367\nsamples = 14\nvalue = [11, 3]"] ;
1121 -> 1151 ;
1152 [label="X[151] <= 2.47\ngini = 0.2604\nsamples = 13\nvalue = [11, 2]"] ;
1151 -> 1152 ;
1153 [label="X[150] <= 2.2806\ngini = 0.1528\nsamples = 12\nvalue = [11, 1]"] ;
1152 -> 1153 ;
1154 [label="gini = 0.0\nsamples = 11\nvalue = [11, 0]"] ;
1153 -> 1154 ;
1155 [label="gini = 0.0\nsamples = 1\nvalue = [0, 1]"] ;
1153 -> 1155 ;
1156 [label="gini = 0.0\nsamples = 1\nvalue = [0, 1]"] ;
1152 -> 1156 ;
1157 [label="gini = 0.0\nsamples = 1\nvalue = [0, 1]"] ;
1151 -> 1157 ;
1158 [label="X[1] <= -0.3859\ngini = 0.375\nsamples = 8\nvalue = [6, 2]"] ;
960 -> 1158 ;
1159 [label="X[5] <= -0.4366\ngini = 0.4444\nsamples = 3\nvalue = [1, 2]"] ;
1158 -> 1159 ;
1160 [label="gini = 0.0\nsamples = 1\nvalue = [0, 1]"] ;
1159 -> 1160 ;
1161 [label="X[2] <= -0.0844\ngini = 0.5\nsamples = 2\nvalue = [1, 1]"] ;
1159 -> 1161 ;
1162 [label="gini = 0.0\nsamples = 1\nvalue = [1, 0]"] ;
1161 -> 1162 ;
1163 [label="gini = 0.0\nsamples = 1\nvalue = [0, 1]"] ;
1161 -> 1163 ;
1164 [label="gini = 0.0\nsamples = 5\nvalue = [5, 0]"] ;
1158 -> 1164 ;
1165 [label="X[6] <= -0.6347\ngini = 0.4082\nsamples = 7\nvalue = [5, 2]"] ;
959 -> 1165 ;
1166 [label="gini = 0.0\nsamples = 4\nvalue = [4, 0]"] ;
1165 -> 1166 ;
1167 [label="X[3] <= -0.3087\ngini = 0.4444\nsamples = 3\nvalue = [1, 2]"] ;
1165 -> 1167 ;
1168 [label="gini = 0.0\nsamples = 2\nvalue = [0, 2]"] ;
1167 -> 1168 ;
1169 [label="gini = 0.0\nsamples = 1\nvalue = [1, 0]"] ;
1167 -> 1169 ;
1170 [label="X[4] <= -0.5414\ngini = 0.4082\nsamples = 7\nvalue = [5, 2]"] ;
958 -> 1170 ;
1171 [label="gini = 0.0\nsamples = 4\nvalue = [4, 0]"] ;
1170 -> 1171 ;
1172 [label="X[6] <= -0.7381\ngini = 0.4444\nsamples = 3\nvalue = [1, 2]"] ;
1170 -> 1172 ;
1173 [label="gini = 0.0\nsamples = 1\nvalue = [1, 0]"] ;
1172 -> 1173 ;
1174 [label="gini = 0.0\nsamples = 2\nvalue = [0, 2]"] ;
1172 -> 1174 ;
1175 [label="X[1] <= -0.3859\ngini = 0.5\nsamples = 2\nvalue = [1, 1]"] ;
957 -> 1175 ;
1176 [label="gini = 0.0\nsamples = 1\nvalue = [1, 0]"] ;
1175 -> 1176 ;
1177 [label="gini = 0.0\nsamples = 1\nvalue = [0, 1]"] ;
1175 -> 1177 ;
1178 [label="X[150] <= 2.2806\ngini = 0.5\nsamples = 2\nvalue = [1, 1]"] ;
956 -> 1178 ;
1179 [label="gini = 0.0\nsamples = 1\nvalue = [0, 1]"] ;
1178 -> 1179 ;
1180 [label="gini = 0.0\nsamples = 1\nvalue = [1, 0]"] ;
1178 -> 1180 ;
1181 [label="X[5] <= -0.7819\ngini = 0.5\nsamples = 2\nvalue = [1, 1]"] ;
955 -> 1181 ;
1182 [label="gini = 0.0\nsamples = 1\nvalue = [1, 0]"] ;
1181 -> 1182 ;
1183 [label="gini = 0.0\nsamples = 1\nvalue = [0, 1]"] ;
1181 -> 1183 ;
1184 [label="X[5] <= -1.0581\ngini = 0.5\nsamples = 2\nvalue = [1, 1]"] ;
954 -> 1184 ;
1185 [label="gini = 0.0\nsamples = 1\nvalue = [1, 0]"] ;
1184 -> 1185 ;
1186 [label="gini = 0.0\nsamples = 1\nvalue = [0, 1]"] ;
1184 -> 1186 ;
1187 [label="X[5] <= -0.4366\ngini = 0.42\nsamples = 10\nvalue = [7, 3]"] ;
953 -> 1187 ;
1188 [label="gini = 0.0\nsamples = 3\nvalue = [0, 3]"] ;
1187 -> 1188 ;
1189 [label="gini = 0.0\nsamples = 7\nvalue = [7, 0]"] ;
1187 -> 1189 ;
1190 [label="X[2] <= -0.3172\ngini = 0.48\nsamples = 5\nvalue = [3, 2]"] ;
952 -> 1190 ;
1191 [label="gini = 0.0\nsamples = 2\nvalue = [2, 0]"] ;
1190 -> 1191 ;
1192 [label="X[4] <= 0.3556\ngini = 0.4444\nsamples = 3\nvalue = [1, 2]"] ;
1190 -> 1192 ;
1193 [label="gini = 0.0\nsamples = 2\nvalue = [0, 2]"] ;
1192 -> 1193 ;
1194 [label="gini = 0.0\nsamples = 1\nvalue = [1, 0]"] ;
1192 -> 1194 ;
1195 [label="gini = 0.0\nsamples = 1\nvalue = [0, 1]"] ;
951 -> 1195 ;
1196 [label="X[6] <= -0.5321\ngini = 0.1728\nsamples = 1110\nvalue = [1004, 106]"] ;
950 -> 1196 ;
1197 [label="X[2] <= -0.2483\ngini = 0.4688\nsamples = 8\nvalue = [3, 5]"] ;
1196 -> 1197 ;
1198 [label="gini = 0.0\nsamples = 5\nvalue = [0, 5]"] ;
1197 -> 1198 ;
1199 [label="gini = 0.0\nsamples = 3\nvalue = [3, 0]"] ;
1197 -> 1199 ;
1200 [label="X[215] <= 8.1411\ngini = 0.1665\nsamples = 1102\nvalue = [1001, 101]"] ;
1196 -> 1200 ;
1201 [label="X[228] <= 5.5002\ngini = 0.1638\nsamples = 1100\nvalue = [1001, 99]"] ;
1200 -> 1201 ;
1202 [label="X[170] <= 31.4841\ngini = 0.1593\nsamples = 1089\nvalue = [994, 95]"] ;
1201 -> 1202 ;
1203 [label="X[53] <= 19.5138\ngini = 0.1579\nsamples = 1088\nvalue = [994, 94]"] ;
1202 -> 1203 ;
1204 [label="X[174] <= 18.8025\ngini = 0.1565\nsamples = 1087\nvalue = [994, 93]"] ;
1203 -> 1204 ;
1205 [label="X[0] <= -0.3606\ngini = 0.1551\nsamples = 1086\nvalue = [994, 92]"] ;
1204 -> 1205 ;
1206 [label="X[6] <= -0.4843\ngini = 0.2807\nsamples = 77\nvalue = [64, 13]"] ;
1205 -> 1206 ;
1207 [label="X[3] <= -0.2121\ngini = 0.4978\nsamples = 15\nvalue = [8, 7]"] ;
1206 -> 1207 ;
1208 [label="X[154] <= 1.741\ngini = 0.1975\nsamples = 9\nvalue = [8, 1]"] ;
1207 -> 1208 ;
1209 [label="gini = 0.0\nsamples = 8\nvalue = [8, 0]"] ;
1208 -> 1209 ;
1210 [label="gini = 0.0\nsamples = 1\nvalue = [0, 1]"] ;
1208 -> 1210 ;
